{"learner":{"attributes":{"scikit_learn":"{\"_estimator_type\": \"classifier\"}"},"feature_names":["rain_sowing","temp_sowing","hum_sowing","rain_growth","temp_growth","hum_growth","rain_harvest","temp_harvest","hum_harvest","water_dependency_num","time_effort_num","price_at_planting"],"feature_types":["float","float","float","float","float","float","float","float","float","int","int","float"],"gradient_booster":{"model":{"gbtree_model_param":{"num_parallel_tree":"1","num_trees":"750"},"iteration_indptr":[0,10,20,30,40,50,60,70,80,90,100,110,120,130,140,150,160,170,180,190,200,210,220,230,240,250,260,270,280,290,300,310,320,330,340,350,360,370,380,390,400,410,420,430,440,450,460,470,480,490,500,510,520,530,540,550,560,570,580,590,600,610,620,630,640,650,660,670,680,690,700,710,720,730,740,750],"tree_info":[0,1,2,3,4,5,6,7,8,9,0,1,2,3,4,5,6,7,8,9,0,1,2,3,4,5,6,7,8,9,0,1,2,3,4,5,6,7,8,9,0,1,2,3,4,5,6,7,8,9,0,1,2,3,4,5,6,7,8,9,0,1,2,3,4,5,6,7,8,9,0,1,2,3,4,5,6,7,8,9,0,1,2,3,4,5,6,7,8,9,0,1,2,3,4,5,6,7,8,9,0,1,2,3,4,5,6,7,8,9,0,1,2,3,4,5,6,7,8,9,0,1,2,3,4,5,6,7,8,9,0,1,2,3,4,5,6,7,8,9,0,1,2,3,4,5,6,7,8,9,0,1,2,3,4,5,6,7,8,9,0,1,2,3,4,5,6,7,8,9,0,1,2,3,4,5,6,7,8,9,0,1,2,3,4,5,6,7,8,9,0,1,2,3,4,5,6,7,8,9,0,1,2,3,4,5,6,7,8,9,0,1,2,3,4,5,6,7,8,9,0,1,2,3,4,5,6,7,8,9,0,1,2,3,4,5,6,7,8,9,0,1,2,3,4,5,6,7,8,9,0,1,2,3,4,5,6,7,8,9,0,1,2,3,4,5,6,7,8,9,0,1,2,3,4,5,6,7,8,9,0,1,2,3,4,5,6,7,8,9,0,1,2,3,4,5,6,7,8,9,0,1,2,3,4,5,6,7,8,9,0,1,2,3,4,5,6,7,8,9,0,1,2,3,4,5,6,7,8,9,0,1,2,3,4,5,6,7,8,9,0,1,2,3,4,5,6,7,8,9,0,1,2,3,4,5,6,7,8,9,0,1,2,3,4,5,6,7,8,9,0,1,2,3,4,5,6,7,8,9,0,1,2,3,4,5,6,7,8,9,0,1,2,3,4,5,6,7,8,9,0,1,2,3,4,5,6,7,8,9,0,1,2,3,4,5,6,7,8,9,0,1,2,3,4,5,6,7,8,9,0,1,2,3,4,5,6,7,8,9,0,1,2,3,4,5,6,7,8,9,0,1,2,3,4,5,6,7,8,9,0,1,2,3,4,5,6,7,8,9,0,1,2,3,4,5,6,7,8,9,0,1,2,3,4,5,6,7,8,9,0,1,2,3,4,5,6,7,8,9,0,1,2,3,4,5,6,7,8,9,0,1,2,3,4,5,6,7,8,9,0,1,2,3,4,5,6,7,8,9,0,1,2,3,4,5,6,7,8,9,0,1,2,3,4,5,6,7,8,9,0,1,2,3,4,5,6,7,8,9,0,1,2,3,4,5,6,7,8,9,0,1,2,3,4,5,6,7,8,9,0,1,2,3,4,5,6,7,8,9,0,1,2,3,4,5,6,7,8,9,0,1,2,3,4,5,6,7,8,9,0,1,2,3,4,5,6,7,8,9,0,1,2,3,4,5,6,7,8,9,0,1,2,3,4,5,6,7,8,9,0,1,2,3,4,5,6,7,8,9,0,1,2,3,4,5,6,7,8,9,0,1,2,3,4,5,6,7,8,9,0,1,2,3,4,5,6,7,8,9,0,1,2,3,4,5,6,7,8,9,0,1,2,3,4,5,6,7,8,9,0,1,2,3,4,5,6,7,8,9,0,1,2,3,4,5,6,7,8,9,0,1,2,3,4,5,6,7,8,9,0,1,2,3,4,5,6,7,8,9,0,1,2,3,4,5,6,7,8,9],"trees":[{"base_weights":[3.4312608E0,1.3017751E0,3.601616E0,-1.9445704E-2,2.6804123E0,1.7169254E-1,3.1739503E-2,3.1739503E-2,1.515723E-1],"categories":[],"categories_nodes":[],"categories_segments":[],"categories_sizes":[],"default_left":[0,0,0,0,0,0,0,0,0],"id":0,"left_children":[1,3,5,-1,7,-1,-1,-1,-1],"loss_changes":[2.074884E1,1.7080463E1,4.965088E0,0E0,1.9945889E0,0E0,0E0,0E0,0E0],"parents":[2147483647,0,0,1,1,2,2,4,4],"right_children":[2,4,6,-1,8,-1,-1,-1,-1],"split_conditions":[2.5461704E1,2.5717142E1,5.03944E4,-1.9445704E-2,2.5698849E1,1.7169254E-1,3.1739503E-2,3.1739503E-2,1.515723E-1],"split_indices":[4,1,11,0,7,0,0,0,0],"split_type":[0,0,0,0,0,0,0,0,0],"sum_hessian":[6.9119995E1,5.7599998E0,6.3359997E1,2.8799999E0,2.8799999E0,6.228E1,1.0799999E0,1.0799999E0,1.8E0],"tree_param":{"num_deleted":"0","num_feature":"12","num_nodes":"9","size_leaf_vector":"1"}},{"base_weights":[-3.7741205E-1,2.9168554E-2,-4.2899412E-1,-4.407295E-1,-6.273899E-10,-2.3557253E-2,-1.3816928E-2],"categories":[],"categories_nodes":[],"categories_segments":[],"categories_sizes":[],"default_left":[0,0,0,0,0,0,0],"id":1,"left_children":[1,-1,3,5,-1,-1,-1],"loss_changes":[3.8862038E0,0E0,3.4032726E-1,4.2548847E-1,0E0,0E0,0E0],"parents":[2147483647,0,0,2,2,3,3],"right_children":[2,-1,4,6,-1,-1,-1],"split_conditions":[1.9117E0,2.9168554E-2,1.6559158E1,1.0138134E1,-6.273899E-10,-2.3557253E-2,-1.3816928E-2],"split_indices":[3,0,3,0,0,0,0],"split_type":[0,0,0,0,0,0,0],"sum_hessian":[6.9479996E1,2.8799999E0,6.66E1,6.4799995E1,1.8E0,4.464E1,2.016E1],"tree_param":{"num_deleted":"0","num_feature":"12","num_nodes":"7","size_leaf_vector":"1"}},{"base_weights":[-4.7550434E-1,-4.872564E-1,-1.3513516E-1,-3.3742332E-1,-5.2529186E-1,-1.6198568E-2,9.068429E-3,-2.1138823E-2,1.6841367E-2,-1.0251269E-2,-2.5649616E-2],"categories":[],"categories_nodes":[],"categories_segments":[],"categories_sizes":[],"default_left":[0,0,0,0,0,0,0,0,0,0,0],"id":2,"left_children":[1,3,5,7,9,-1,-1,-1,-1,-1,-1],"loss_changes":[2.117567E-1,2.0287704E-1,3.185158E-1,1.4151076E0,1.7677021E-1,0E0,0E0,0E0,0E0,0E0,0E0],"parents":[2147483647,0,0,1,1,2,2,3,3,4,4],"right_children":[2,4,6,8,10,-1,-1,-1,-1,-1,-1],"split_conditions":[1.7223299E1,2.582432E1,8.642225E0,2.5732061E1,6.945853E1,-1.6198568E-2,9.068429E-3,-2.1138823E-2,1.6841367E-2,-1.0251269E-2,-2.5649616E-2],"split_indices":[0,7,3,7,8,0,0,0,0,0,0],"split_type":[0,0,0,0,0,0,0,0,0,0,0],"sum_hessian":[6.8399994E1,6.57E1,2.6999998E0,1.5299999E1,5.0399998E1,1.6199999E0,1.0799999E0,1.3499999E1,1.8E0,3.6E0,4.68E1],"tree_param":{"num_deleted":"0","num_feature":"12","num_nodes":"11","size_leaf_vector":"1"}},{"base_weights":[-1.89978E-1,-4.9132952E-1,-3.8445994E-2,-2.4959609E-2,-1.7241381E-1,-4.294976E-1,8.9285694E-2,9.068429E-3,-1.7406516E-2,-2.3753872E-2,1.7998404E-3,2.3431469E-2,-5.399524E-3],"categories":[],"categories_nodes":[],"categories_segments":[],"categories_sizes":[],"default_left":[0,0,0,0,0,0,0,0,0,0,0,0,0],"id":3,"left_children":[1,3,5,-1,7,9,11,-1,-1,-1,-1,-1,-1],"loss_changes":[3.298172E0,2.0203543E-1,2.5068612E0,0E0,3.622737E-1,4.4762897E-1,3.2200644E0,0E0,0E0,0E0,0E0,0E0,0E0],"parents":[2147483647,0,0,1,1,2,2,4,4,5,5,6,6],"right_children":[2,4,6,-1,8,10,12,-1,-1,-1,-1,-1,-1],"split_conditions":[6.9316425E0,2.7788252E1,7.863217E1,-2.4959609E-2,2.8232143E1,9.780098E0,3.636841E3,9.068429E-3,-1.7406516E-2,-2.3753872E-2,1.7998404E-3,2.3431469E-2,-5.399524E-3],"split_indices":[0,7,8,0,7,3,11,0,0,0,0,0,0],"split_type":[0,0,0,0,0,0,0,0,0,0,0,0,0],"sum_hessian":[7.164E1,2.322E1,4.842E1,2.016E1,3.06E0,1.1339999E1,3.7079998E1,1.0799999E0,1.9799999E0,9.719999E0,1.6199999E0,1.1879999E1,2.5199999E1],"tree_param":{"num_deleted":"0","num_feature":"12","num_nodes":"13","size_leaf_vector":"1"}},{"base_weights":[-4.6553147E-1,-4.9205467E-1,3.1739503E-2,-2.5121173E-2,2.173913E-1,-1.546093E-2,2.6860917E-2],"categories":[],"categories_nodes":[],"categories_segments":[],"categories_sizes":[],"default_left":[0,0,0,0,0,0,0],"id":4,"left_children":[1,3,-1,-1,5,-1,-1],"loss_changes":[2.5303211E0,2.1858444E0,0E0,0E0,1.0702204E0,0E0,0E0],"parents":[2147483647,0,0,1,1,4,4],"right_children":[2,4,-1,-1,6,-1,-1],"split_conditions":[5.5497918E4,8.939286E1,3.1739503E-2,-2.5121173E-2,8.786832E1,-1.546093E-2,2.6860917E-2],"split_indices":[11,2,0,0,5,0,0],"split_type":[0,0,0,0,0,0,0],"sum_hessian":[7.182E1,7.074E1,1.0799999E0,6.714E1,3.6E0,1.4399999E0,2.1599998E0],"tree_param":{"num_deleted":"0","num_feature":"12","num_nodes":"7","size_leaf_vector":"1"}},{"base_weights":[-4.0878758E-1,5.188679E-1,-4.6010485E-1,4.5889903E-2,-1.46057885E-2,4.7169797E-2,-4.8594135E-1,-1.7907279E-2,3.1739503E-2,-2.403492E-2,-1.4956142E-2],"categories":[],"categories_nodes":[],"categories_segments":[],"categories_sizes":[],"default_left":[0,0,0,0,0,0,0,0,0,0,0],"id":5,"left_children":[1,3,5,-1,-1,7,9,-1,-1,-1,-1],"loss_changes":[3.662468E0,1.8974525E0,9.230566E-1,0E0,0E0,1.38857E0,1.0065746E-1,0E0,0E0,0E0,0E0],"parents":[2147483647,0,0,1,1,2,2,5,5,6,6],"right_children":[2,4,6,-1,-1,8,10,-1,-1,-1,-1],"split_conditions":[7.035182E1,4.0851724E3,2.5399971E1,4.5889903E-2,-1.46057885E-2,2.5723349E1,3.512567E4,-1.7907279E-2,3.1739503E-2,-2.403492E-2,-1.4956142E-2],"split_indices":[5,11,4,0,0,1,11,0,0,0,0],"split_type":[0,0,0,0,0,0,0,0,0,0,0],"sum_hessian":[7.092E1,3.2399998E0,6.768E1,1.9799999E0,1.26E0,3.2399998E0,6.4439995E1,2.1599998E0,1.0799999E0,5.4719997E1,9.719999E0],"tree_param":{"num_deleted":"0","num_feature":"12","num_nodes":"11","size_leaf_vector":"1"}},{"base_weights":[-3.1327632E-1,-1.202889E-2,-4.6166533E-1,3.9106146E-1,-2.394315E-2,-2.4414662E-2,-1.3126494E-1,-6.809507E-3,8.007594E-2,-2.186032E-2,2.400147E-2],"categories":[],"categories_nodes":[],"categories_segments":[],"categories_sizes":[],"default_left":[0,0,0,0,0,0,0,0,0,0,0],"id":6,"left_children":[1,3,5,7,-1,-1,9,-1,-1,-1,-1],"loss_changes":[3.23354E0,5.1820326E0,8.310404E-1,1.0267517E1,0E0,0E0,2.018891E0,0E0,0E0,0E0,0E0],"parents":[2147483647,0,0,1,1,2,2,3,3,6,6],"right_children":[2,4,6,8,-1,-1,10,-1,-1,-1,-1],"split_conditions":[2E0,8.415909E3,1.3620976E1,3.636841E3,-2.394315E-2,-2.4414662E-2,6.378481E3,-6.809507E-3,8.007594E-2,-2.186032E-2,2.400147E-2],"split_indices":[10,11,0,11,0,0,11,0,0,0,0],"split_type":[0,0,0,0,0,0,0,0,0,0,0],"sum_hessian":[7.146E1,2.3939999E1,4.7519997E1,1.332E1,1.062E1,4.014E1,7.3799996E0,1.008E1,3.2399998E0,5.04E0,2.34E0],"tree_param":{"num_deleted":"0","num_feature":"12","num_nodes":"11","size_leaf_vector":"1"}},{"base_weights":[-3.6564866E-1,-4.0064576E-1,2.8301886E-1,-4.997818E-1,-1.8867926E-1,-1.46057885E-2,3.00658E-2,-1.1171582E-2,-2.5522485E-2,-1.846281E-2,9.172186E-3],"categories":[],"categories_nodes":[],"categories_segments":[],"categories_sizes":[],"default_left":[0,0,0,0,0,0,0,0,0,0,0],"id":7,"left_children":[1,3,5,7,9,-1,-1,-1,-1,-1,-1],"loss_changes":[1.7338209E0,1.3375626E0,1.0886009E0,3.7110138E-1,1.8887935E0,0E0,0E0,0E0,0E0,0E0,0E0],"parents":[2147483647,0,0,1,1,2,2,3,3,4,4],"right_children":[2,4,6,8,10,-1,-1,-1,-1,-1,-1],"split_conditions":[8.939286E1,9.714706E3,8.642225E0,7.407693E1,2.6431517E1,-1.46057885E-2,3.00658E-2,-1.1171582E-2,-2.5522485E-2,-1.846281E-2,9.172186E-3],"split_indices":[2,11,3,2,4,0,0,0,0,0,0],"split_type":[0,0,0,0,0,0,0,0,0,0,0],"sum_hessian":[7.038E1,6.714E1,3.2399998E0,4.482E1,2.232E1,1.26E0,1.9799999E0,7.0199995E0,3.78E1,1.4579999E1,7.74E0],"tree_param":{"num_deleted":"0","num_feature":"12","num_nodes":"11","size_leaf_vector":"1"}},{"base_weights":[-4.50237E-1,1.4241693E-2,-4.7591746E-1,-4.9904644E-1,-2.2959186E-1,-1.684137E-2,-2.5628172E-2,1.1938184E-2,-2.1585416E-2],"categories":[],"categories_nodes":[],"categories_segments":[],"categories_sizes":[],"default_left":[0,0,0,0,0,0,0,0,0],"id":8,"left_children":[1,-1,3,5,7,-1,-1,-1,-1],"loss_changes":[1.5296164E0,0E0,2.8286457E-1,2.0261383E-1,9.794072E-1,0E0,0E0,0E0,0E0],"parents":[2147483647,0,0,2,2,3,3,4,4],"right_children":[2,-1,4,6,8,-1,-1,-1,-1],"split_conditions":[2.527619E1,1.4241693E-2,2.7574947E1,2.5870163E1,9.630144E0,-1.684137E-2,-2.5628172E-2,1.1938184E-2,-2.1585416E-2],"split_indices":[4,0,1,1,3,0,0,0,0],"split_type":[0,0,0,0,0,0,0,0,0],"sum_hessian":[7.074E1,1.9799999E0,6.8759995E1,6.192E1,6.8399997E0,1.692E1,4.4999996E1,2.1599998E0,4.68E0],"tree_param":{"num_deleted":"0","num_feature":"12","num_nodes":"9","size_leaf_vector":"1"}},{"base_weights":[-3.4034315E-1,-4.2622393E-1,2.0188406E-2,-4.672354E-1,-1.02040835E-1,1.2162162E0,-3.4539476E-1,-2.3608314E-2,-6.245807E-3,-1.40530635E-2,1.6841367E-2,7.708165E-2,1.9798249E-2,-2.3137208E-2,-7.6377893E-10],"categories":[],"categories_nodes":[],"categories_segments":[],"categories_sizes":[],"default_left":[0,0,0,0,0,0,0,0,0,0,0,0,0,0,0],"id":9,"left_children":[1,3,5,7,9,11,13,-1,-1,-1,-1,-1,-1,-1,-1],"loss_changes":[2.2465906E0,7.2902966E-1,6.9175744E0,5.106077E-1,8.11934E-1,5.465512E-1,6.100899E-1,0E0,0E0,0E0,0E0,0E0,0E0,0E0,0E0],"parents":[2147483647,0,0,1,1,2,2,3,3,4,4,5,5,6,6],"right_children":[2,4,6,8,10,12,14,-1,-1,-1,-1,-1,-1,-1,-1],"split_conditions":[8.735023E1,2.7574947E1,8.8371544E1,1.0702259E1,3.9623272E0,7.097088E0,7.062309E3,-2.3608314E-2,-6.245807E-3,-1.40530635E-2,1.6841367E-2,7.708165E-2,1.9798249E-2,-2.3137208E-2,-7.6377893E-10],"split_indices":[2,1,2,0,0,0,11,0,0,0,0,0,0,0,0],"split_type":[0,0,0,0,0,0,0,0,0,0,0,0,0,0,0],"sum_hessian":[7.128E1,5.742E1,1.386E1,5.0579998E1,6.8399997E0,2.6999998E0,1.116E1,4.5539997E1,5.04E0,5.04E0,1.8E0,1.0799999E0,1.6199999E0,7.5599995E0,3.6E0],"tree_param":{"num_deleted":"0","num_feature":"12","num_nodes":"15","size_leaf_vector":"1"}},{"base_weights":[2.8862004E0,1.2281228E0,3.0542526E0,1.7606429E0,-1.7794374E-2,2.7202636E-2,3.088626E0,1.1379396E-1,-1.05E-3,2.7231034E-2,1.4732118E-1],"categories":[],"categories_nodes":[],"categories_segments":[],"categories_sizes":[],"default_left":[0,0,0,0,0,0,0,0,0,0,0],"id":10,"left_children":[1,3,5,7,-1,-1,9,-1,-1,-1,-1],"loss_changes":[1.9214905E1,8.578974E0,4.5337524E0,8.346266E0,0E0,0E0,4.697937E0,0E0,0E0,0E0,0E0],"parents":[2147483647,0,0,1,1,2,2,3,3,6,6],"right_children":[2,4,6,8,-1,-1,10,-1,-1,-1,-1],"split_conditions":[2.5666315E1,8.939286E1,1.2757182E0,8.791845E1,-1.7794374E-2,2.7202636E-2,9.0153813E-1,1.1379396E-1,-1.05E-3,2.7231034E-2,1.4732118E-1],"split_indices":[4,2,3,8,0,0,0,0,0,0,0],"split_type":[0,0,0,0,0,0,0,0,0,0,0],"sum_hessian":[8.14206E1,8.257394E0,7.316321E1,6.128112E0,2.129282E0,1.2445873E0,7.191862E1,4.2274666E0,1.900645E0,1.2434897E0,7.067513E1],"tree_param":{"num_deleted":"0","num_feature":"12","num_nodes":"11","size_leaf_vector":"1"}},{"base_weights":[-3.8846454E-1,3.924446E-1,-4.263995E-1,4.184014E-2,-1.4762223E-2,-1.7288332E-1,-4.5944196E-1,-1.6871477E-2,2.3803404E-2,-2.2352977E-2,6.439461E-5],"categories":[],"categories_nodes":[],"categories_segments":[],"categories_sizes":[],"default_left":[0,0,0,0,0,0,0,0,0,0,0],"id":11,"left_children":[1,3,5,-1,-1,7,9,-1,-1,-1,-1],"loss_changes":[2.2303896E0,1.5858629E0,4.809351E-1,0E0,0E0,1.3479867E0,3.9425087E-1,0E0,0E0,0E0,0E0],"parents":[2147483647,0,0,1,1,2,2,5,5,6,6],"right_children":[2,4,6,-1,-1,8,10,-1,-1,-1,-1],"split_conditions":[1.9117E0,3.7751162E3,7.4752846E1,4.184014E-2,-1.4762223E-2,7.393927E1,1.6559158E1,-1.6871477E-2,2.3803404E-2,-2.2352977E-2,6.439461E-5],"split_indices":[3,11,8,0,0,8,3,0,0,0,0],"split_type":[0,0,0,0,0,0,0,0,0,0,0],"sum_hessian":[6.86418E1,2.7470608E0,6.589474E1,1.4631565E0,1.2839043E0,8.3168E0,5.7577934E1,6.904873E0,1.4119271E0,5.5784042E1,1.7938918E0],"tree_param":{"num_deleted":"0","num_feature":"12","num_nodes":"11","size_leaf_vector":"1"}},{"base_weights":[-4.7347295E-1,-4.8565748E-1,-4.0911185E-3,-3.470359E-1,-5.2313405E-1,-2.1292722E-2,1.3931426E-2,-9.44999E-3,-2.556385E-2],"categories":[],"categories_nodes":[],"categories_segments":[],"categories_sizes":[],"default_left":[0,0,0,0,0,0,0,0,0],"id":12,"left_children":[1,3,-1,5,7,-1,-1,-1,-1],"loss_changes":[2.82341E-1,1.6413975E-1,0E0,1.2836359E0,2.0014858E-1,0E0,0E0,0E0,0E0],"parents":[2147483647,0,0,1,1,3,3,4,4],"right_children":[2,4,-1,6,8,-1,-1,-1,-1],"split_conditions":[1.7223299E1,2.582432E1,-4.0911185E-3,2.5732061E1,1.4806452E0,-2.1292722E-2,1.3931426E-2,-9.44999E-3,-2.556385E-2],"split_indices":[0,7,0,7,6,0,0,0,0],"split_type":[0,0,0,0,0,0,0,0,0],"sum_hessian":[6.786235E1,6.5541435E1,2.320913E0,1.6131796E1,4.940964E1,1.4130518E1,2.0012772E0,3.3864024E0,4.602324E1],"tree_param":{"num_deleted":"0","num_feature":"12","num_nodes":"9","size_leaf_vector":"1"}},{"base_weights":[-2.3057926E-1,-4.878383E-1,-9.782808E-2,-2.4825692E-2,-1.9978425E-1,-4.1047588E-1,8.753432E-2,9.468518E-3,-1.8292269E-2,-6.680447E-3,-2.4064053E-2,-2.2446608E-2,1.1530314E-2],"categories":[],"categories_nodes":[],"categories_segments":[],"categories_sizes":[],"default_left":[0,0,0,0,0,0,0,0,0,0,0,0,0],"id":13,"left_children":[1,3,5,-1,7,9,11,-1,-1,-1,-1,-1,-1],"loss_changes":[2.3267603E0,1.553216E-1,2.7662797E0,0E0,4.0795428E-1,4.0301275E-1,2.8058767E0,0E0,0E0,0E0,0E0,0E0,0E0],"parents":[2147483647,0,0,1,1,2,2,4,4,5,5,6,6],"right_children":[2,4,6,-1,8,10,12,-1,-1,-1,-1,-1,-1],"split_conditions":[6.9316425E0,2.7788252E1,7.988497E1,-2.4825692E-2,3.01E3,2E0,2E0,9.468518E-3,-1.8292269E-2,-6.680447E-3,-2.4064053E-2,-2.2446608E-2,1.1530314E-2],"split_indices":[0,7,8,0,11,10,9,0,0,0,0,0,0],"split_type":[0,0,0,0,0,0,0,0,0,0,0,0,0],"sum_hessian":[6.852808E1,2.2415047E1,4.611304E1,1.9035158E1,3.3798895E0,1.6711527E1,2.9401514E1,1.0585685E0,2.321321E0,5.180822E0,1.1530704E1,5.9629426E0,2.343857E1],"tree_param":{"num_deleted":"0","num_feature":"12","num_nodes":"13","size_leaf_vector":"1"}},{"base_weights":[-4.443127E-1,-4.7203773E-1,3.1389713E-2,-5.1407254E-1,2.1121384E-1,-9.883641E-3,-2.491107E-2,-1.5317214E-2,2.5832066E-2],"categories":[],"categories_nodes":[],"categories_segments":[],"categories_sizes":[],"default_left":[0,0,0,0,0,0,0,0,0],"id":14,"left_children":[1,3,-1,5,7,-1,-1,-1,-1],"loss_changes":[2.4319334E0,2.0536156E0,0E0,1.663456E-1,1.0139759E0,0E0,0E0,0E0,0E0],"parents":[2147483647,0,0,1,1,3,3,4,4],"right_children":[2,4,-1,6,8,-1,-1,-1,-1],"split_conditions":[5.0303016E4,8.939286E1,3.1389713E-2,2.5343134E1,8.642225E0,-9.883641E-3,-2.491107E-2,-1.5317214E-2,2.5832066E-2],"split_indices":[11,2,0,1,3,0,0,0,0],"split_type":[0,0,0,0,0,0,0,0,0],"sum_hessian":[6.781509E1,6.672319E1,1.0918918E0,6.3089428E1,3.6337638E0,3.51323E0,5.95762E1,1.4151002E0,2.2186635E0],"tree_param":{"num_deleted":"0","num_feature":"12","num_nodes":"9","size_leaf_vector":"1"}},{"base_weights":[-4.0545827E-1,4.4443676E-1,-4.436923E-1,3.0760389E-2,3.8722905E-3,-4.6676677E-1,-1.1424936E-1,-2.311028E-2,-1.2884249E-2,2.6597101E-2,-2.0342603E-2],"categories":[],"categories_nodes":[],"categories_segments":[],"categories_sizes":[],"default_left":[0,0,0,0,0,0,0,0,0,0,0],"id":15,"left_children":[1,3,5,-1,-1,7,9,-1,-1,-1,-1],"loss_changes":[2.5020494E0,2.140472E-1,4.664526E-1,0E0,0E0,1.5299606E-1,1.4909024E0,0E0,0E0,0E0,0E0],"parents":[2147483647,0,0,1,1,2,2,5,5,6,6],"right_children":[2,4,6,-1,-1,8,10,-1,-1,-1,-1],"split_conditions":[1.9117E0,9.0153813E-1,1.5521628E1,3.0760389E-2,3.8722905E-3,2.751414E1,1.5812381E1,-2.311028E-2,-1.2884249E-2,2.6597101E-2,-2.0342603E-2],"split_indices":[3,0,0,0,0,1,0,0,0,0,0],"split_type":[0,0,0,0,0,0,0,0,0,0,0],"sum_hessian":[6.992979E1,2.5531132E0,6.737667E1,1.1137381E0,1.439375E0,6.2576893E1,4.799781E0,5.448115E1,8.095741E0,1.2811986E0,3.518582E0],"tree_param":{"num_deleted":"0","num_feature":"12","num_nodes":"11","size_leaf_vector":"1"}},{"base_weights":[-3.5111427E-1,-1.3767539E-1,-4.5239422E-1,-2.407389E-2,2.7241707E-1,-5.134923E-1,-7.5894386E-2,4.568919E-2,-2.1965776E-2,-2.5351865E-2,-1.2994605E-2,1.6721271E-2,-2.0337667E-2],"categories":[],"categories_nodes":[],"categories_segments":[],"categories_sizes":[],"default_left":[0,0,0,0,0,0,0,0,0,0,0,0,0],"id":16,"left_children":[1,3,5,-1,7,9,11,-1,-1,-1,-1,-1,-1],"loss_changes":[1.377862E0,3.636923E0,9.902935E-1,0E0,6.3879604E0,7.183838E-2,1.2882398E0,0E0,0E0,0E0,0E0,0E0,0E0],"parents":[2147483647,0,0,1,1,2,2,4,4,5,5,6,6],"right_children":[2,4,6,-1,8,10,12,-1,-1,-1,-1,-1,-1],"split_conditions":[2E0,2E0,1.3620976E1,-2.407389E-2,3E0,1.4187542E1,8.642387E1,4.568919E-2,-2.1965776E-2,-2.5351865E-2,-1.2994605E-2,1.6721271E-2,-2.0337667E-2],"split_indices":[10,9,0,0,9,6,8,0,0,0,0,0,0],"split_type":[0,0,0,0,0,0,0,0,0,0,0,0,0],"sum_hessian":[6.5620735E1,2.1876736E1,4.3744003E1,1.1330521E1,1.0546215E1,3.7323345E1,6.420656E0,5.2657723E0,5.280443E0,3.2743412E1,4.579935E0,2.904564E0,3.5160923E0],"tree_param":{"num_deleted":"0","num_feature":"12","num_nodes":"13","size_leaf_vector":"1"}},{"base_weights":[-3.838066E-1,-4.064929E-1,6.818677E-2,-4.5453596E-1,-2.7682197E-1,-1.4468755E-2,1.5964326E-2,-2.3000928E-2,-1.1572727E-2,-3.8771718E-3,-2.3301966E-2],"categories":[],"categories_nodes":[],"categories_segments":[],"categories_sizes":[],"default_left":[0,0,0,0,0,0,0,0,0,0,0],"id":17,"left_children":[1,3,5,7,9,-1,-1,-1,-1,-1,-1],"loss_changes":[7.221823E-1,2.7682114E-1,5.188727E-1,1.9717407E-1,8.064971E-1,0E0,0E0,0E0,0E0,0E0,0E0],"parents":[2147483647,0,0,1,1,2,2,3,3,4,4],"right_children":[2,4,6,8,10,-1,-1,-1,-1,-1,-1],"split_conditions":[8.939286E1,9.717884E0,8.786832E1,2.7574947E1,8.8265335E1,-1.4468755E-2,1.5964326E-2,-2.3000928E-2,-1.1572727E-2,-3.8771718E-3,-2.3301966E-2],"split_indices":[2,0,5,1,2,0,0,0,0,0,0],"split_type":[0,0,0,0,0,0,0,0,0,0,0],"sum_hessian":[6.672573E1,6.363257E1,3.0931594E0,4.4602165E1,1.9030405E1,1.2392639E0,1.8538957E0,3.733706E1,7.265106E0,1.0767306E1,8.263099E0],"tree_param":{"num_deleted":"0","num_feature":"12","num_nodes":"11","size_leaf_vector":"1"}},{"base_weights":[-4.3230927E-1,1.6459702E-2,-4.5825794E-1,-4.9586564E-1,-1.2608764E-1,-1.6001156E-2,-2.5551077E-2,8.001425E-3,-2.0198332E-2],"categories":[],"categories_nodes":[],"categories_segments":[],"categories_sizes":[],"default_left":[0,0,0,0,0,0,0,0,0],"id":18,"left_children":[1,-1,3,5,7,-1,-1,-1,-1],"loss_changes":[1.5827761E0,0E0,7.9134464E-1,2.5560856E-1,8.1399274E-1,0E0,0E0,0E0,0E0],"parents":[2147483647,0,0,2,2,3,3,4,4],"right_children":[2,-1,4,6,8,-1,-1,-1,-1],"split_conditions":[2.527619E1,1.6459702E-2,2.7574947E1,6.114661E0,2.608926E1,-1.6001156E-2,-2.5551077E-2,8.001425E-3,-2.0198332E-2],"split_indices":[4,0,1,6,4,0,0,0,0],"split_type":[0,0,0,0,0,0,0,0,0],"sum_hessian":[6.917544E1,1.823235E0,6.73522E1,6.0059563E1,7.2926383E0,1.55378895E1,4.452167E1,3.9074783E0,3.3851602E0],"tree_param":{"num_deleted":"0","num_feature":"12","num_nodes":"9","size_leaf_vector":"1"}},{"base_weights":[-3.574558E-1,-4.0606603E-1,2.9365093E-1,-4.853063E-1,-8.1041455E-2,4.8651166E-2,-1.8675275E-2,-2.4300385E-2,-1.6590351E-2,-1.3958837E-2,1.715847E-2],"categories":[],"categories_nodes":[],"categories_segments":[],"categories_sizes":[],"default_left":[0,0,0,0,0,0,0,0,0,0,0],"id":19,"left_children":[1,3,5,7,9,-1,-1,-1,-1,-1,-1],"loss_changes":[2.2971144E0,1.6205683E0,3.1373174E0,2.5503159E-2,1.4307742E0,0E0,0E0,0E0,0E0,0E0,0E0],"parents":[2147483647,0,0,1,1,2,2,3,3,4,4],"right_children":[2,4,6,8,10,-1,-1,-1,-1,-1,-1],"split_conditions":[8.899073E1,1.0702259E1,9.687126E0,3E0,2.5550116E1,4.8651166E-2,-1.8675275E-2,-2.4300385E-2,-1.6590351E-2,-1.3958837E-2,1.715847E-2],"split_indices":[5,0,0,9,1,0,0,0,0,0,0],"split_type":[0,0,0,0,0,0,0,0,0,0,0],"sum_hessian":[6.781016E1,6.3449497E1,4.3606596E0,5.0616234E1,1.2833262E1,1.8668976E0,2.493762E0,3.8989037E1,1.1627197E1,8.878135E0,3.9551272E0],"tree_param":{"num_deleted":"0","num_feature":"12","num_nodes":"11","size_leaf_vector":"1"}},{"base_weights":[2.5127773E0,2.940211E0,2.2486277E0,1.5103261E-1,1.4739634E0,3.3152E-1,2.3416576E0,2.8523784E-2,1.1255361E-1,-1.353039E-2,3.112824E-2,8.993477E-2,1.3243708E-1],"categories":[],"categories_nodes":[],"categories_segments":[],"categories_sizes":[],"default_left":[0,0,0,0,0,0,0,0,0,0,0,0,0],"id":20,"left_children":[1,3,5,-1,7,9,11,-1,-1,-1,-1,-1,-1],"loss_changes":[3.6395264E0,7.3807373E0,9.989716E0,0E0,3.8134336E0,9.9387753E-1,6.2874756E0,0E0,0E0,0E0,0E0,0E0,0E0],"parents":[2147483647,0,0,1,1,2,2,4,4,5,5,6,6],"right_children":[2,4,6,-1,8,10,12,-1,-1,-1,-1,-1,-1],"split_conditions":[7.058839E0,2.751414E1,7.241356E0,1.5103261E-1,2.7063346E0,2.5717142E1,2.6342716E1,2.8523784E-2,1.1255361E-1,-1.353039E-2,3.112824E-2,8.993477E-2,1.3243708E-1],"split_indices":[0,7,0,0,0,1,7,0,0,0,0,0,0],"split_type":[0,0,0,0,0,0,0,0,0,0,0,0,0],"sum_hessian":[8.9791466E1,3.042629E1,5.9365177E1,2.4799847E1,5.626445E0,2.9586434E0,5.6406532E1,3.73411E0,1.8923348E0,1.070551E0,1.8880925E0,3.1849987E1,2.4556547E1],"tree_param":{"num_deleted":"0","num_feature":"12","num_nodes":"13","size_leaf_vector":"1"}},{"base_weights":[-3.7030968E-1,4.9091575E-1,-4.2196968E-1,3.957902E-2,-1.3642353E-2,-1.7215078E-1,-4.554748E-1,-1.6393807E-2,1.7524902E-2,6.214557E-4,-2.2186771E-2],"categories":[],"categories_nodes":[],"categories_segments":[],"categories_sizes":[],"default_left":[0,0,0,0,0,0,0,0,0,0,0],"id":21,"left_children":[1,3,5,-1,-1,7,9,-1,-1,-1,-1],"loss_changes":[3.2603855E0,1.4241513E0,4.6799946E-1,0E0,0E0,1.0193722E0,4.072132E-1,0E0,0E0,0E0,0E0],"parents":[2147483647,0,0,1,1,2,2,5,5,6,6],"right_children":[2,4,6,-1,-1,8,10,-1,-1,-1,-1],"split_conditions":[1.9117E0,7.115765E1,2.5454147E1,3.957902E-2,-1.3642353E-2,2.5386427E1,7.27251E1,-1.6393807E-2,1.7524902E-2,6.214557E-4,-2.2186771E-2],"split_indices":[3,2,7,0,0,7,2,0,0,0,0],"split_type":[0,0,0,0,0,0,0,0,0,0,0],"sum_hessian":[6.762603E1,3.3457706E0,6.428026E1,2.26056E0,1.0852106E0,8.327472E0,5.595279E1,6.568317E0,1.7591549E0,1.7418451E0,5.4210945E1],"tree_param":{"num_deleted":"0","num_feature":"12","num_nodes":"11","size_leaf_vector":"1"}},{"base_weights":[-4.859128E-1,-4.9883658E-1,-5.893575E-2,-5.121617E-1,-1.5971774E-1,8.966108E-3,-1.3372231E-2,-8.579195E-3,-2.4833966E-2,9.998858E-3,-1.7152077E-2],"categories":[],"categories_nodes":[],"categories_segments":[],"categories_sizes":[],"default_left":[0,0,0,0,0,0,0,0,0,0,0],"id":22,"left_children":[1,3,5,7,9,-1,-1,-1,-1,-1,-1],"loss_changes":[3.465519E-1,2.1641159E-1,2.2935826E-1,2.0554352E-1,3.76575E-1,0E0,0E0,0E0,0E0,0E0,0E0],"parents":[2147483647,0,0,1,1,2,2,3,3,4,4],"right_children":[2,4,6,8,10,-1,-1,-1,-1,-1,-1],"split_conditions":[8.981098E1,4.844955E4,2.5454147E1,1.4806452E0,4.956141E4,8.966108E-3,-1.3372231E-2,-8.579195E-3,-2.4833966E-2,9.998858E-3,-1.7152077E-2],"split_indices":[2,11,4,6,11,0,0,0,0,0,0],"split_type":[0,0,0,0,0,0,0,0,0,0,0],"sum_hessian":[6.712981E1,6.4994255E1,2.1355536E0,6.2045998E1,2.9482572E0,1.0855337E0,1.0500199E0,3.1751812E0,5.8870815E1,1.0307257E0,1.9175315E0],"tree_param":{"num_deleted":"0","num_feature":"12","num_nodes":"11","size_leaf_vector":"1"}},{"base_weights":[-2.2942981E-1,-7.28369E-2,-4.3482846E-1,-2.2899754E-2,2.8680071E-2,5.2808836E-2,-2.5064941E-2,-1.8579157E-2,9.127458E-3,-1.6693883E-2,1.4894645E-2],"categories":[],"categories_nodes":[],"categories_segments":[],"categories_sizes":[],"default_left":[0,0,0,0,0,0,0,0,0,0,0],"id":23,"left_children":[1,3,5,-1,7,9,-1,-1,-1,-1,-1],"loss_changes":[2.2008617E0,1.7146537E0,1.4345436E0,0E0,2.4122078E0,7.373823E-1,0E0,0E0,0E0,0E0,0E0],"parents":[2147483647,0,0,1,1,2,2,4,4,5,5],"right_children":[2,4,6,-1,8,10,-1,-1,-1,-1,-1],"split_conditions":[3E0,2.5896667E1,2.5386427E1,-2.2899754E-2,2.6207682E1,7.3556714E0,-2.5064941E-2,-1.8579157E-2,9.127458E-3,-1.6693883E-2,1.4894645E-2],"split_indices":[10,1,1,0,4,3,0,0,0,0,0],"split_type":[0,0,0,0,0,0,0,0,0,0,0],"sum_hessian":[6.8410995E1,3.95859E1,2.8825096E1,7.0669785E0,3.251892E1,4.8455315E0,2.3979565E1,8.735505E0,2.3783415E1,1.7669843E0,3.0785472E0],"tree_param":{"num_deleted":"0","num_feature":"12","num_nodes":"11","size_leaf_vector":"1"}},{"base_weights":[-4.5854473E-1,-4.8608452E-1,2.9754847E-2,-8.6534105E-2,-2.4864702E-2,1.8196559E-2,-2.0668473E-2],"categories":[],"categories_nodes":[],"categories_segments":[],"categories_sizes":[],"default_left":[0,0,0,0,0,0,0],"id":24,"left_children":[1,3,-1,5,-1,-1,-1],"loss_changes":[2.3931017E0,1.0801659E0,0E0,1.430299E0,0E0,0E0,0E0],"parents":[2147483647,0,0,1,1,3,3],"right_children":[2,4,-1,6,-1,-1,-1],"split_conditions":[5.5497918E4,2.5386427E1,2.9754847E-2,2.5666315E1,-2.4864702E-2,1.8196559E-2,-2.0668473E-2],"split_indices":[11,1,0,4,0,0,0],"split_type":[0,0,0,0,0,0,0],"sum_hessian":[6.8533325E1,6.738394E1,1.1493801E0,6.5891423E0,6.07948E1,2.770904E0,3.8182383E0],"tree_param":{"num_deleted":"0","num_feature":"12","num_nodes":"7","size_leaf_vector":"1"}},{"base_weights":[-4.151674E-1,3.855382E-1,-4.5433465E-1,3.559938E-2,-1.3481163E-2,-4.7570544E-1,-2.5169343E-1,-7.1683936E-3,-2.3080971E-2,2.0911284E-2,-2.2308638E-2],"categories":[],"categories_nodes":[],"categories_segments":[],"categories_sizes":[],"default_left":[0,0,0,0,0,0,0,0,0,0,0],"id":25,"left_children":[1,3,5,-1,-1,7,9,-1,-1,-1,-1],"loss_changes":[2.348195E0,1.1514189E0,1.683302E-1,0E0,0E0,1.8852139E-1,1.5132067E0,0E0,0E0,0E0,0E0],"parents":[2147483647,0,0,1,1,2,2,5,5,6,6],"right_children":[2,4,6,-1,-1,8,10,-1,-1,-1,-1],"split_conditions":[1.9117E0,3.8068628E3,2.751414E1,3.559938E-2,-1.3481163E-2,2.5399971E1,7.0227337E0,-7.1683936E-3,-2.3080971E-2,2.0911284E-2,-2.2308638E-2],"split_indices":[3,11,1,0,0,4,3,0,0,0,0],"split_type":[0,0,0,0,0,0,0,0,0,0,0],"sum_hessian":[6.828992E1,2.7722754E0,6.551765E1,1.7081444E0,1.064131E0,5.804828E1,7.4693656E0,2.8576233E0,5.5190655E1,1.5619515E0,5.9074144E0],"tree_param":{"num_deleted":"0","num_feature":"12","num_nodes":"11","size_leaf_vector":"1"}},{"base_weights":[-3.149182E-1,-4.6035513E-2,-4.5327353E-1,1.6347227E-1,-2.6748967E-1,-5.125767E-1,-1.0599752E-1,1.6613653E-2,-1.9168952E-2,6.489782E-3,-2.2970067E-2,-2.5274571E-2,-1.4632885E-2,1.1138534E-2,-2.0180749E-2],"categories":[],"categories_nodes":[],"categories_segments":[],"categories_sizes":[],"default_left":[0,0,0,0,0,0,0,0,0,0,0,0,0,0,0],"id":26,"left_children":[1,3,5,7,9,11,13,-1,-1,-1,-1,-1,-1,-1,-1],"loss_changes":[2.5587406E0,1.1883844E0,8.862324E-1,1.5745734E0,1.1678786E0,1.7103195E-2,9.7392195E-1,0E0,0E0,0E0,0E0,0E0,0E0,0E0,0E0],"parents":[2147483647,0,0,1,1,2,2,3,3,4,4,5,5,6,6],"right_children":[2,4,6,8,10,12,14,-1,-1,-1,-1,-1,-1,-1,-1],"split_conditions":[2E0,2.6509525E1,1.3620976E1,1.0138134E1,7.5665665E0,1.4187542E1,8.642387E1,1.6613653E-2,-1.9168952E-2,6.489782E-3,-2.2970067E-2,-2.5274571E-2,-1.4632885E-2,1.1138534E-2,-2.0180749E-2],"split_indices":[10,1,0,0,6,6,8,0,0,0,0,0,0,0,0],"split_type":[0,0,0,0,0,0,0,0,0,0,0,0,0,0,0],"sum_hessian":[6.834176E1,2.3671267E1,4.4670494E1,1.2298261E1,1.1373005E1,3.7748344E1,6.9221497E0,9.524516E0,2.7737448E0,4.1293364E0,7.243669E0,3.2354916E1,5.3934283E0,3.4846995E0,3.43745E0],"tree_param":{"num_deleted":"0","num_feature":"12","num_nodes":"15","size_leaf_vector":"1"}},{"base_weights":[-3.6981592E-1,-4.0642312E-1,2.7093384E-1,-4.5368484E-1,-2.7987298E-1,-1.4313931E-2,2.8117156E-2,-8.7105455E-3,-2.30609E-2,-5.573979E-3,-2.3008851E-2],"categories":[],"categories_nodes":[],"categories_segments":[],"categories_sizes":[],"default_left":[0,0,0,0,0,0,0,0,0,0,0],"id":27,"left_children":[1,3,5,7,9,-1,-1,-1,-1,-1,-1],"loss_changes":[1.7144604E0,2.6239586E-1,9.8398364E-1,3.4504414E-1,6.255616E-1,0E0,0E0,0E0,0E0,0E0,0E0],"parents":[2147483647,0,0,1,1,2,2,3,3,4,4],"right_children":[2,4,6,8,10,-1,-1,-1,-1,-1,-1],"split_conditions":[8.939286E1,9.717884E0,8.642225E0,2.608926E1,8.8265335E1,-1.4313931E-2,2.8117156E-2,-8.7105455E-3,-2.30609E-2,-5.573979E-3,-2.3008851E-2],"split_indices":[2,0,3,4,2,0,0,0,0,0,0],"split_type":[0,0,0,0,0,0,0,0,0,0,0],"sum_hessian":[6.739797E1,6.410145E1,3.296524E0,4.4789307E1,1.9312141E1,1.2160715E0,2.0804524E0,5.9261227E0,3.8863182E1,1.17500515E1,7.56209E0],"tree_param":{"num_deleted":"0","num_feature":"12","num_nodes":"11","size_leaf_vector":"1"}},{"base_weights":[-4.2599413E-1,-4.525124E-1,1.3413155E-2,-4.7982287E-1,9.29806E-2,-2.393843E-2,-8.072688E-3,-1.708463E-2,3.263285E-2],"categories":[],"categories_nodes":[],"categories_segments":[],"categories_sizes":[],"default_left":[0,0,0,0,0,0,0,0,0],"id":28,"left_children":[1,3,-1,5,7,-1,-1,-1,-1],"loss_changes":[1.3974943E0,1.0175667E0,0E0,4.4854832E-1,1.3284281E0,0E0,0E0,0E0,0E0],"parents":[2147483647,0,0,1,1,3,3,4,4],"right_children":[2,4,-1,6,8,-1,-1,-1,-1],"split_conditions":[8.939286E1,4.8857305E4,1.3413155E-2,2.7920944E1,2.6926586E1,-2.393843E-2,-8.072688E-3,-1.708463E-2,3.263285E-2],"split_indices":[5,11,0,1,7,0,0,0,0],"split_type":[0,0,0,0,0,0,0,0,0],"sum_hessian":[6.634644E1,6.4309044E1,2.0373943E0,6.135753E1,2.9515173E0,5.5692192E1,5.665336E0,1.9015225E0,1.049995E0],"tree_param":{"num_deleted":"0","num_feature":"12","num_nodes":"9","size_leaf_vector":"1"}},{"base_weights":[-3.453741E-1,2.852286E-1,-4.3114784E-1,5.6489073E-2,-1.7958926E-1,-2.5083411E-2,-3.472304E-1,1.7204847E-2,-2.0938564E-2,2.3116425E-2,-1.864624E-2],"categories":[],"categories_nodes":[],"categories_segments":[],"categories_sizes":[],"default_left":[0,0,0,0,0,0,0,0,0,0,0],"id":29,"left_children":[1,3,5,-1,7,-1,9,-1,-1,-1,-1],"loss_changes":[3.9073763E0,4.0243845E0,3.3952427E-1,0E0,1.1437278E0,0E0,1.6749439E0,0E0,0E0,0E0,0E0],"parents":[2147483647,0,0,1,1,2,2,4,4,6,6],"right_children":[2,4,6,-1,8,-1,10,-1,-1,-1,-1],"split_conditions":[2.5666315E1,2.5482754E1,7.71944E0,5.6489073E-2,1.1018028E1,-2.5083411E-2,7.734202E0,1.7204847E-2,-2.0938564E-2,2.3116425E-2,-1.864624E-2],"split_indices":[4,7,3,0,3,0,3,0,0,0,0],"split_type":[0,0,0,0,0,0,0,0,0,0,0],"sum_hessian":[6.896598E1,7.979066E0,6.0986916E1,2.160203E0,5.818863E0,2.528408E1,3.5702835E1,1.7781729E0,4.04069E0,1.4434774E0,3.4259357E1],"tree_param":{"num_deleted":"0","num_feature":"12","num_nodes":"11","size_leaf_vector":"1"}},{"base_weights":[2.2555978E0,1.1669977E0,2.3286831E0,1.734404E0,-1.7786667E-2,2.795509E0,2.1346655E0,-1.34799825E-2,1.0366892E-1,2.5491888E-2,1.367675E-1,7.5965285E-2,1.0932779E-1],"categories":[],"categories_nodes":[],"categories_segments":[],"categories_sizes":[],"default_left":[0,0,0,0,0,0,0,0,0,0,0,0,0],"id":30,"left_children":[1,3,5,7,-1,9,11,-1,-1,-1,-1,-1,-1],"loss_changes":[5.35437E0,8.003199E0,2.5526428E0,6.5460243E0,0E0,4.196472E0,3.067871E0,0E0,0E0,0E0,0E0,0E0,0E0],"parents":[2147483647,0,0,1,1,2,2,3,3,5,5,6,6],"right_children":[2,4,6,8,-1,10,12,-1,-1,-1,-1,-1,-1],"split_conditions":[2.5461704E1,8.939286E1,3.60953E3,7.097088E0,-1.7786667E-2,1.9117E0,5.474264E3,-1.34799825E-2,1.0366892E-1,2.5491888E-2,1.367675E-1,7.5965285E-2,1.0932779E-1],"split_indices":[4,2,11,0,0,3,11,0,0,0,0,0,0],"split_type":[0,0,0,0,0,0,0,0,0,0,0,0,0],"sum_hessian":[1.0045675E2,7.387534E0,9.3069214E1,5.312347E0,2.0751872E0,2.3387667E1,6.968154E1,1.0639848E0,4.248362E0,1.3124083E0,2.207526E1,2.0636414E1,4.904513E1],"tree_param":{"num_deleted":"0","num_feature":"12","num_nodes":"13","size_leaf_vector":"1"}},{"base_weights":[-3.7084594E-1,4.7030377E-1,-4.218037E-1,3.7681013E-2,-1.3561395E-2,-2.5076691E-2,-3.332309E-1,1.166154E-3,-1.8309917E-2],"categories":[],"categories_nodes":[],"categories_segments":[],"categories_sizes":[],"default_left":[0,0,0,0,0,0,0,0,0],"id":31,"left_children":[1,3,5,-1,-1,-1,7,-1,-1],"loss_changes":[3.165228E0,1.3327711E0,4.6367073E-1,0E0,0E0,0E0,7.8055334E-1,0E0,0E0],"parents":[2147483647,0,0,1,1,2,2,6,6],"right_children":[2,4,6,-1,-1,-1,8,-1,-1],"split_conditions":[1.9117E0,7.115765E1,4.1862573E3,3.7681013E-2,-1.3561395E-2,-2.5076691E-2,7.4752846E1,1.166154E-3,-1.8309917E-2],"split_indices":[3,2,11,0,0,0,8,0,0],"split_type":[0,0,0,0,0,0,0,0,0],"sum_hessian":[6.821687E1,3.426531E0,6.479034E1,2.351931E0,1.0746E0,2.6670273E1,3.8120068E1,5.15478E0,3.2965286E1],"tree_param":{"num_deleted":"0","num_feature":"12","num_nodes":"9","size_leaf_vector":"1"}},{"base_weights":[-4.69038E-1,-4.9598053E-1,4.678E-2,-5.100153E-1,-7.9867214E-2,3.2800537E-2,-1.7932788E-2,-7.6543214E-3,-2.4747295E-2,-1.3298054E-2,6.606396E-3],"categories":[],"categories_nodes":[],"categories_segments":[],"categories_sizes":[],"default_left":[0,0,0,0,0,0,0,0,0,0,0],"id":32,"left_children":[1,3,5,7,9,-1,-1,-1,-1,-1,-1],"loss_changes":[9.599743E-1,3.338852E-1,1.444836E0,2.3281097E-1,1.8528374E-1,0E0,0E0,0E0,0E0,0E0,0E0],"parents":[2147483647,0,0,1,1,2,2,3,3,4,4],"right_children":[2,4,6,8,10,-1,-1,-1,-1,-1,-1],"split_conditions":[4.844955E4,8.981098E1,4.9247254E4,1.4806452E0,2.5160595E1,3.2800537E-2,-1.7932788E-2,-7.6543214E-3,-2.4747295E-2,-1.3298054E-2,6.606396E-3],"split_indices":[11,2,11,6,1,0,0,0,0,0,0],"split_type":[0,0,0,0,0,0,0,0,0,0,0],"sum_hessian":[6.6406044E1,6.314621E1,3.2598314E0,6.086758E1,2.2786276E0,1.0444238E0,2.2154076E0,2.9709356E0,5.789665E1,1.0404627E0,1.2381648E0],"tree_param":{"num_deleted":"0","num_feature":"12","num_nodes":"11","size_leaf_vector":"1"}},{"base_weights":[-2.3740606E-1,-8.5425876E-2,-4.3259895E-1,-4.2815435E-1,6.806495E-2,1.654155E-1,-2.5027528E-2,9.795276E-3,-2.380951E-2,6.630238E-2,-9.55239E-3,-6.8528075E-3,3.0311685E-2],"categories":[],"categories_nodes":[],"categories_segments":[],"categories_sizes":[],"default_left":[0,0,0,0,0,0,0,0,0,0,0,0,0],"id":33,"left_children":[1,3,5,7,9,11,-1,-1,-1,-1,-1,-1,-1],"loss_changes":[1.9846542E0,2.1102576E0,1.8242202E0,7.088337E-1,1.0491184E1,8.252339E-1,0E0,0E0,0E0,0E0,0E0,0E0,0E0],"parents":[2147483647,0,0,1,1,2,2,3,3,4,4,5,5],"right_children":[2,4,6,8,10,12,-1,-1,-1,-1,-1,-1,-1],"split_conditions":[3E0,3.60953E3,2.5343134E1,2.0240784E0,3.636841E3,8.786832E1,-2.5027528E-2,9.795276E-3,-2.380951E-2,6.630238E-2,-9.55239E-3,-6.8528075E-3,3.0311685E-2],"split_indices":[10,11,1,0,11,5,0,0,0,0,0,0,0],"split_type":[0,0,0,0,0,0,0,0,0,0,0,0,0],"sum_hessian":[6.7146935E1,3.8560658E1,2.8586275E1,1.1374091E1,2.7186567E1,3.9333682E0,2.4652908E1,1.0413153E0,1.0332776E1,3.868128E0,2.331844E1,2.8038623E0,1.129506E0],"tree_param":{"num_deleted":"0","num_feature":"12","num_nodes":"13","size_leaf_vector":"1"}},{"base_weights":[-4.5173064E-1,-4.8075053E-1,2.9069927E-2,-9.457239E-2,-2.4714425E-2,1.589461E-2,-2.0549698E-2],"categories":[],"categories_nodes":[],"categories_segments":[],"categories_sizes":[],"default_left":[0,0,0,0,0,0,0],"id":34,"left_children":[1,3,-1,5,-1,-1,-1],"loss_changes":[2.3311424E0,1.0296631E0,0E0,1.2848369E0,0E0,0E0,0E0],"parents":[2147483647,0,0,1,1,3,3],"right_children":[2,4,-1,6,-1,-1,-1],"split_conditions":[5.5497918E4,2.5386427E1,2.9069927E-2,2.5666315E1,-2.4714425E-2,1.589461E-2,-2.0549698E-2],"split_indices":[11,1,0,4,0,0,0],"split_type":[0,0,0,0,0,0,0],"sum_hessian":[6.4640236E1,6.3465984E1,1.174252E0,6.726469E0,5.6739517E1,2.9750798E0,3.751389E0],"tree_param":{"num_deleted":"0","num_feature":"12","num_nodes":"7","size_leaf_vector":"1"}},{"base_weights":[-4.259266E-1,2.8678142E-2,-4.5347428E-1,-4.790805E-1,-3.1055838E-2,-2.3914374E-2,-6.9072708E-3,3.0303217E-2,-1.910928E-2],"categories":[],"categories_nodes":[],"categories_segments":[],"categories_sizes":[],"default_left":[0,0,0,0,0,0,0,0,0],"id":35,"left_children":[1,-1,3,5,7,-1,-1,-1,-1],"loss_changes":[2.2096395E0,0E0,7.065611E-1,5.1185894E-1,1.4908812E0,0E0,0E0,0E0,0E0],"parents":[2147483647,0,0,2,2,3,3,4,4],"right_children":[2,-1,4,6,8,-1,-1,-1,-1],"split_conditions":[9.0153813E-1,2.8678142E-2,8.899232E1,1.4187542E1,1.3203571E1,-2.3914374E-2,-6.9072708E-3,3.0303217E-2,-1.910928E-2],"split_indices":[0,0,5,6,3,0,0,0,0],"split_type":[0,0,0,0,0,0,0,0,0],"sum_hessian":[6.688651E1,1.1886991E0,6.5697815E1,6.181648E1,3.8813355E0,5.652402E1,5.2924566E0,1.1298164E0,2.7515192E0],"tree_param":{"num_deleted":"0","num_feature":"12","num_nodes":"9","size_leaf_vector":"1"}},{"base_weights":[-3.0922738E-1,2.8112778E-3,-4.7217458E-1,1.021011E-1,-2.053447E-2,-2.5301376E-2,-1.1369277E-1,-1.9926231E-2,1.0600548E-2,4.152852E-3,-1.8671056E-2],"categories":[],"categories_nodes":[],"categories_segments":[],"categories_sizes":[],"default_left":[0,0,0,0,0,0,0,0,0,0,0],"id":36,"left_children":[1,3,5,7,-1,-1,9,-1,-1,-1,-1],"loss_changes":[3.4559445E0,1.1020006E0,9.691572E-1,1.4226335E0,0E0,0E0,4.9413085E-1,0E0,0E0,0E0,0E0],"parents":[2147483647,0,0,1,1,2,2,3,3,6,6],"right_children":[2,4,6,8,-1,-1,10,-1,-1,-1,-1],"split_conditions":[2E0,8.2839554E1,1.3620976E1,7.961354E1,-2.053447E-2,-2.5301376E-2,9.270532E0,-1.9926231E-2,1.0600548E-2,4.152852E-3,-1.8671056E-2],"split_indices":[10,5,0,5,0,0,6,0,0,0,0],"split_type":[0,0,0,0,0,0,0,0,0,0,0],"sum_hessian":[6.694298E1,2.3302395E1,4.3640583E1,1.9623703E1,3.678691E0,3.6575836E1,7.0647492E0,3.2561631E0,1.636754E1,4.521013E0,2.5437362E0],"tree_param":{"num_deleted":"0","num_feature":"12","num_nodes":"11","size_leaf_vector":"1"}},{"base_weights":[-3.7959874E-1,1.6276708E-2,-4.0532675E-1,-4.756623E-1,-2.1599457E-1,-2.4216412E-2,-8.897926E-3,2.8031992E-2,-1.42886E-2],"categories":[],"categories_nodes":[],"categories_segments":[],"categories_sizes":[],"default_left":[0,0,0,0,0,0,0,0,0],"id":37,"left_children":[1,-1,3,5,7,-1,-1,-1,-1],"loss_changes":[1.387557E0,0E0,7.638588E-1,4.098177E-1,1.5523535E0,0E0,0E0,0E0,0E0],"parents":[2147483647,0,0,2,2,3,3,4,4],"right_children":[2,-1,4,6,8,-1,-1,-1,-1],"split_conditions":[2.5307371E1,1.6276708E-2,1.0088815E4,2.7574947E1,1.0590909E4,-2.4216412E-2,-8.897926E-3,2.8031992E-2,-1.42886E-2],"split_indices":[1,0,11,1,11,0,0,0,0],"split_type":[0,0,0,0,0,0,0,0,0],"sum_hessian":[6.590956E1,1.8338324E0,6.407573E1,4.5617023E1,1.8458706E1,3.9600536E1,6.016486E0,1.224248E0,1.7234457E1],"tree_param":{"num_deleted":"0","num_feature":"12","num_nodes":"9","size_leaf_vector":"1"}},{"base_weights":[-4.253998E-1,1.5491283E-2,-4.519653E-1,-2.7244452E-1,-5.0077194E-1,4.8824567E-3,-2.3495734E-2,-2.540121E-2,-1.0157676E-2],"categories":[],"categories_nodes":[],"categories_segments":[],"categories_sizes":[],"default_left":[0,0,0,0,0,0,0,0,0],"id":38,"left_children":[1,-1,3,5,7,-1,-1,-1,-1],"loss_changes":[1.5045309E0,0E0,4.403038E-1,1.4323968E0,4.307003E-1,0E0,0E0,0E0,0E0],"parents":[2147483647,0,0,2,2,3,3,4,4],"right_children":[2,-1,4,6,8,-1,-1,-1,-1],"split_conditions":[2.527619E1,1.5491283E-2,2.608926E1,1.0224175E1,1.0490265E1,4.8824567E-3,-2.3495734E-2,-2.540121E-2,-1.0157676E-2],"split_indices":[4,0,4,0,0,0,0,0,0],"split_type":[0,0,0,0,0,0,0,0,0],"sum_hessian":[6.6707726E1,1.8836871E0,6.4824036E1,1.5263585E1,4.956045E1,5.9305577E0,9.333028E0,4.2967243E1,6.593208E0],"tree_param":{"num_deleted":"0","num_feature":"12","num_nodes":"9","size_leaf_vector":"1"}},{"base_weights":[-3.502475E-1,3.714578E-1,-4.5738283E-1,-1.8580729E-1,6.792198E-2,-4.8672307E-1,-5.712724E-2,1.4423735E-2,-2.0830099E-2,-2.363653E-2,-1.1621651E-2,3.280494E-2,-1.9715391E-2],"categories":[],"categories_nodes":[],"categories_segments":[],"categories_sizes":[],"default_left":[0,0,0,0,0,0,0,0,0,0,0,0,0],"id":39,"left_children":[1,3,5,7,-1,9,11,-1,-1,-1,-1,-1,-1],"loss_changes":[5.352151E0,5.756854E0,6.6281414E-1,1.0087714E0,0E0,6.7157745E-2,1.6901155E0,0E0,0E0,0E0,0E0,0E0,0E0],"parents":[2147483647,0,0,1,1,2,2,3,3,5,5,6,6],"right_children":[2,4,6,8,-1,10,12,-1,-1,-1,-1,-1,-1],"split_conditions":[2.5666315E1,9.270532E0,1.3620976E1,1.1018028E1,6.792198E-2,2.7920944E1,3.252239E0,1.4423735E-2,-2.0830099E-2,-2.363653E-2,-1.1621651E-2,3.280494E-2,-1.9715391E-2],"split_indices":[4,6,0,3,0,1,6,0,0,0,0,0,0],"split_type":[0,0,0,0,0,0,0,0,0,0,0,0,0],"sum_hessian":[6.602334E1,8.215222E0,5.7808117E1,5.943058E0,2.2721643E0,5.3658703E1,4.1494155E0,1.9676297E0,3.975428E0,4.957656E1,4.0821414E0,1.0442791E0,3.1051366E0],"tree_param":{"num_deleted":"0","num_feature":"12","num_nodes":"13","size_leaf_vector":"1"}},{"base_weights":[1.9847353E0,2.0193229E0,8.067193E-1,2.400772E-2,2.0345218E0,8.7255105E-2,-1.7718963E-2,1.1801017E-1,8.8821314E-2],"categories":[],"categories_nodes":[],"categories_segments":[],"categories_sizes":[],"default_left":[0,0,0,0,0,0,0,0,0],"id":40,"left_children":[1,3,5,-1,7,-1,-1,-1,-1],"loss_changes":[2.7771912E0,1.3603821E0,6.5569296E0,0E0,2.5645447E0,0E0,0E0,0E0,0E0],"parents":[2147483647,0,0,1,1,2,2,4,4],"right_children":[2,4,6,-1,8,-1,-1,-1,-1],"split_conditions":[8.939286E1,9.0153813E-1,8.642225E0,2.400772E-2,7.942022E1,8.7255105E-2,-1.7718963E-2,1.1801017E-1,8.8821314E-2],"split_indices":[2,0,3,0,5,0,0,0,0],"split_type":[0,0,0,0,0,0,0,0,0],"sum_hessian":[1.0714155E2,1.0339171E2,3.7498434E0,1.3739135E0,1.0201779E2,1.6918318E0,2.0580118E0,2.1079865E1,8.093793E1],"tree_param":{"num_deleted":"0","num_feature":"12","num_nodes":"9","size_leaf_vector":"1"}},{"base_weights":[-3.919927E-1,-4.2711762E-1,2.1858918E-2,-4.9051267E-1,-2.6656446E-1,4.336895E-1,-1.8733533E-2,-2.5209146E-2,-1.2010131E-2,5.0865915E-3,-2.0608142E-2,4.3577035E-3,2.8636051E-2],"categories":[],"categories_nodes":[],"categories_segments":[],"categories_sizes":[],"default_left":[0,0,0,0,0,0,0,0,0,0,0,0,0],"id":41,"left_children":[1,3,5,7,9,11,-1,-1,-1,-1,-1,-1,-1],"loss_changes":[9.7334194E-1,4.9191952E-1,1.2320185E0,3.0738258E-1,1.2922441E0,1.5564209E-1,0E0,0E0,0E0,0E0,0E0,0E0,0E0],"parents":[2147483647,0,0,1,1,2,2,3,3,4,4,5,5],"right_children":[2,4,6,8,10,12,-1,-1,-1,-1,-1,-1,-1],"split_conditions":[2.7920944E1,1.0138134E1,2.7063346E0,3.512567E4,7.5171795E0,3.6924019E3,-1.8733533E-2,-2.5209146E-2,-1.2010131E-2,5.0865915E-3,-2.0608142E-2,4.3577035E-3,2.8636051E-2],"split_indices":[7,0,0,11,3,11,0,0,0,0,0,0,0],"split_type":[0,0,0,0,0,0,0,0,0,0,0,0,0],"sum_hessian":[6.531614E1,6.017669E1,5.1394467E0,4.1668556E1,1.8508135E1,2.574765E0,2.5646818E0,3.4039085E1,7.6294713E0,5.90476E0,1.26033745E1,1.384665E0,1.1901001E0],"tree_param":{"num_deleted":"0","num_feature":"12","num_nodes":"13","size_leaf_vector":"1"}},{"base_weights":[-4.8052427E-1,-4.9371874E-1,-8.040412E-2,-5.073921E-1,-1.7090546E-1,-1.41809955E-2,8.969536E-3,-8.268567E-3,-2.4637768E-2,-1.749119E-2,1.0123945E-2],"categories":[],"categories_nodes":[],"categories_segments":[],"categories_sizes":[],"default_left":[0,0,0,0,0,0,0,0,0,0,0],"id":42,"left_children":[1,3,5,7,9,-1,-1,-1,-1,-1,-1],"loss_changes":[3.0545807E-1,1.9178867E-1,2.528605E-1,2.0901394E-1,3.936829E-1,0E0,0E0,0E0,0E0,0E0,0E0],"parents":[2147483647,0,0,1,1,2,2,3,3,4,4],"right_children":[2,4,6,8,10,-1,-1,-1,-1,-1,-1],"split_conditions":[1.7223299E1,4.844955E4,3.7751162E3,1.4806452E0,1.0360473E1,-1.41809955E-2,8.969536E-3,-8.268567E-3,-2.4637768E-2,-1.749119E-2,1.0123945E-2],"split_indices":[0,11,11,6,6,0,0,0,0,0,0],"split_type":[0,0,0,0,0,0,0,0,0,0,0],"sum_hessian":[6.4378174E1,6.209654E1,2.2816386E0,5.9024654E1,3.071886E0,1.1963521E0,1.0852865E0,3.1133075E0,5.5911346E1,2.0477343E0,1.0241517E0],"tree_param":{"num_deleted":"0","num_feature":"12","num_nodes":"11","size_leaf_vector":"1"}},{"base_weights":[-1.8055025E-1,-4.8195148E-1,-3.1456403E-2,-2.4605954E-2,-1.8621114E-1,-2.3296839E-2,8.1297636E-2,-1.7438771E-2,7.0928223E-3,2.5108123E-2,-6.0536135E-3],"categories":[],"categories_nodes":[],"categories_segments":[],"categories_sizes":[],"default_left":[0,0,0,0,0,0,0,0,0,0,0],"id":43,"left_children":[1,3,5,-1,7,-1,9,-1,-1,-1,-1],"loss_changes":[3.0675857E0,1.6958094E-1,2.4898849E0,0E0,3.178324E-1,0E0,3.7217035E0,0E0,0E0,0E0,0E0],"parents":[2147483647,0,0,1,1,2,2,4,4,6,6],"right_children":[2,4,6,-1,8,-1,10,-1,-1,-1,-1],"split_conditions":[6.9316425E0,2.7788252E1,2E0,-2.4605954E-2,7.115765E1,-2.3296839E-2,3.636841E3,-1.7438771E-2,7.0928223E-3,2.5108123E-2,-6.0536135E-3],"split_indices":[0,7,9,0,2,0,11,0,0,0,0],"split_type":[0,0,0,0,0,0,0,0,0,0,0],"sum_hessian":[6.76014E1,2.1634188E1,4.5967213E1,1.8391626E1,3.2425601E0,8.345897E0,3.7621315E1,2.0343816E0,1.2081786E0,1.1448377E1,2.617294E1],"tree_param":{"num_deleted":"0","num_feature":"12","num_nodes":"11","size_leaf_vector":"1"}},{"base_weights":[-4.3454865E-1,-4.6369693E-1,3.3864785E-2,-5.0743914E-1,1.7649107E-1,-9.4363205E-3,-2.463108E-2,-1.5547255E-2,2.3600733E-2],"categories":[],"categories_nodes":[],"categories_segments":[],"categories_sizes":[],"default_left":[0,0,0,0,0,0,0,0,0],"id":44,"left_children":[1,3,-1,5,7,-1,-1,-1,-1],"loss_changes":[2.5233088E0,1.8870659E0,0E0,1.716938E-1,9.5997775E-1,0E0,0E0,0E0,0E0],"parents":[2147483647,0,0,1,1,3,3,4,4],"right_children":[2,4,-1,6,8,-1,-1,-1,-1],"split_conditions":[5.847097E4,8.939286E1,3.3864785E-2,2.5343134E1,8.642225E0,-9.4363205E-3,-2.463108E-2,-1.5547255E-2,2.3600733E-2],"split_indices":[11,2,0,1,3,0,0,0,0],"split_type":[0,0,0,0,0,0,0,0,0],"sum_hessian":[6.418944E1,6.318929E1,1.0001454E0,5.9341984E1,3.847305E0,3.4102838E0,5.59317E1,1.4946005E0,2.3527045E0],"tree_param":{"num_deleted":"0","num_feature":"12","num_nodes":"9","size_leaf_vector":"1"}},{"base_weights":[-3.9010522E-1,4.6695554E-1,-4.3092072E-1,3.3297464E-2,3.736118E-3,1.0460834E-1,-4.5811796E-1,2.9530419E-2,-1.6444251E-2,-2.285699E-2,-8.60205E-3],"categories":[],"categories_nodes":[],"categories_segments":[],"categories_sizes":[],"default_left":[0,0,0,0,0,0,0,0,0,0,0],"id":45,"left_children":[1,3,5,-1,-1,7,9,-1,-1,-1,-1],"loss_changes":[2.4998531E0,2.6554292E-1,9.690552E-1,0E0,0E0,1.1336782E0,3.5422802E-1,0E0,0E0,0E0,0E0],"parents":[2147483647,0,0,1,1,2,2,5,5,6,6],"right_children":[2,4,6,-1,-1,8,10,-1,-1,-1,-1],"split_conditions":[1.9117E0,6.753189E1,2.5399971E1,3.3297464E-2,3.736118E-3,8.727693E1,1.4187542E1,2.9530419E-2,-1.6444251E-2,-2.285699E-2,-8.60205E-3],"split_indices":[3,2,4,0,0,2,6,0,0,0,0],"split_type":[0,0,0,0,0,0,0,0,0,0,0],"sum_hessian":[6.4710175E1,2.4669755E0,6.2243195E1,1.0179235E0,1.449052E0,2.8707244E0,5.937247E1,1.1574769E0,1.7132477E0,5.345786E1,5.9146123E0],"tree_param":{"num_deleted":"0","num_feature":"12","num_nodes":"11","size_leaf_vector":"1"}},{"base_weights":[-2.950485E-1,-2.4712255E-2,-1.8815054E-1,-6.713076E-2,-2.4042346E-2,1.0700072E-2,-1.5160516E-2],"categories":[],"categories_nodes":[],"categories_segments":[],"categories_sizes":[],"default_left":[0,0,0,0,0,0,0],"id":46,"left_children":[1,-1,3,5,-1,-1,-1],"loss_changes":[1.5729308E0,0E0,1.8388306E0,2.7738633E0,0E0,0E0,0E0],"parents":[2147483647,0,0,2,2,3,3],"right_children":[2,-1,4,6,-1,-1,-1],"split_conditions":[6.9316425E0,-2.4712255E-2,3E0,9.5814495E0,-2.4042346E-2,1.0700072E-2,-1.5160516E-2],"split_indices":[0,0,9,0,0,0,0],"split_type":[0,0,0,0,0,0,0],"sum_hessian":[6.728059E1,2.0169422E1,4.7111164E1,3.511131E1,1.1999857E1,1.6335737E1,1.877557E1],"tree_param":{"num_deleted":"0","num_feature":"12","num_nodes":"7","size_leaf_vector":"1"}},{"base_weights":[-3.6015576E-1,9.077343E-2,-4.0744558E-1,3.7948963E-1,-1.7836606E-2,-4.826647E-1,-2.6746976E-1,1.5518218E-3,2.5730487E-2,-2.5188692E-2,-7.095351E-4,1.9123113E-2,-1.5976854E-2],"categories":[],"categories_nodes":[],"categories_segments":[],"categories_sizes":[],"default_left":[0,0,0,0,0,0,0,0,0,0,0,0,0],"id":47,"left_children":[1,3,5,7,-1,9,11,-1,-1,-1,-1,-1,-1],"loss_changes":[1.4375E0,1.0984398E0,4.9868488E-1,2.6214916E-1,0E0,8.959265E-1,1.2457123E0,0E0,0E0,0E0,0E0,0E0,0E0],"parents":[2147483647,0,0,1,1,2,2,3,3,5,5,6,6],"right_children":[2,4,6,8,-1,10,12,-1,-1,-1,-1,-1,-1],"split_conditions":[2.5461704E1,1.3203571E1,2.6499651E1,1.1658427E1,-1.7836606E-2,2.7574947E1,2.6524149E1,1.5518218E-3,2.5730487E-2,-2.5188692E-2,-7.095351E-4,1.9123113E-2,-1.5976854E-2],"split_indices":[4,3,4,3,0,1,4,0,0,0,0,0,0],"split_type":[0,0,0,0,0,0,0,0,0,0,0,0,0],"sum_hessian":[6.4676735E1,6.0516906E0,5.8625046E1,3.8640087E0,2.1876817E0,3.654082E1,2.2084225E1,1.6404121E0,2.2235968E0,3.2787933E1,3.7528882E0,1.6676481E0,2.0416576E1],"tree_param":{"num_deleted":"0","num_feature":"12","num_nodes":"13","size_leaf_vector":"1"}},{"base_weights":[-4.3506983E-1,-4.619455E-1,1.3528198E-1,-5.1921463E-1,-2.2205497E-1,3.2450717E-2,-1.6185366E-2,-1.0382647E-2,-2.5386754E-2,1.5669964E-2,-1.9192457E-2],"categories":[],"categories_nodes":[],"categories_segments":[],"categories_sizes":[],"default_left":[0,0,0,0,0,0,0,0,0,0,0],"id":48,"left_children":[1,3,5,7,9,-1,-1,-1,-1,-1,-1],"loss_changes":[1.0641975E0,7.451992E-1,1.2188303E0,1.6665459E-1,1.5519807E0,0E0,0E0,0E0,0E0,0E0,0E0],"parents":[2147483647,0,0,1,1,2,2,3,3,4,4],"right_children":[2,4,6,8,10,-1,-1,-1,-1,-1,-1],"split_conditions":[4.8857305E4,1.17721195E1,9.235429E0,1.4806452E0,1.26706505E1,3.2450717E-2,-1.6185366E-2,-1.0382647E-2,-2.5386754E-2,1.5669964E-2,-1.9192457E-2],"split_indices":[11,6,6,6,6,0,0,0,0,0,0],"split_type":[0,0,0,0,0,0,0,0,0,0,0],"sum_hessian":[6.434875E1,6.1634525E1,2.7142253E0,4.8816227E1,1.2818298E1,1.055999E0,1.6582261E0,3.6892948E0,4.512693E1,3.0073397E0,9.810959E0],"tree_param":{"num_deleted":"0","num_feature":"12","num_nodes":"11","size_leaf_vector":"1"}},{"base_weights":[-3.3599985E-1,3.7332624E-2,-3.890642E-1,-4.1442984E-1,1.71022E-1,-1.3621865E-3,-2.135547E-2,3.285295E-2,-1.5517637E-2],"categories":[],"categories_nodes":[],"categories_segments":[],"categories_sizes":[],"default_left":[0,0,0,0,0,0,0,0,0],"id":49,"left_children":[1,-1,3,5,7,-1,-1,-1,-1],"loss_changes":[4.3496213E0,0E0,9.968214E-1,9.153223E-1,1.1576861E0,0E0,0E0,0E0,0E0],"parents":[2147483647,0,0,2,2,3,3,4,4],"right_children":[2,-1,4,6,8,-1,-1,-1,-1],"split_conditions":[2.527619E1,3.7332624E-2,4.8996527E4,2.5666315E1,9.236119E0,-1.3621865E-3,-2.135547E-2,3.285295E-2,-1.5517637E-2],"split_indices":[4,0,11,4,6,0,0,0,0],"split_type":[0,0,0,0,0,0,0,0,0],"sum_hessian":[6.654027E1,2.3648477E0,6.417542E1,6.164371E1,2.5317113E0,5.747711E0,5.5896E1,1.0426377E0,1.4890736E0],"tree_param":{"num_deleted":"0","num_feature":"12","num_nodes":"9","size_leaf_vector":"1"}},{"base_weights":[1.8628091E0,1.6216097E0,2.0656602E0,1.7820963E0,8.2389945E-1,8.6398727E-1,2.2061715E0,8.755442E-2,3.1057691E-2,2.6676306E-3,5.075227E-2,6.1377943E-2,-5.953527E-3,1.0521762E-1,3.8611356E-2],"categories":[],"categories_nodes":[],"categories_segments":[],"categories_sizes":[],"default_left":[0,0,0,0,0,0,0,0,0,0,0,0,0,0,0],"id":50,"left_children":[1,3,5,7,9,11,13,-1,-1,-1,-1,-1,-1,-1,-1],"loss_changes":[2.3731384E0,5.967743E0,8.204758E0,2.7582397E0,2.1831594E0,3.5931664E0,1.7822266E-2,0E0,0E0,0E0,0E0,0E0,0E0,0E0,0E0],"parents":[2147483647,0,0,1,1,2,2,3,3,4,4,5,5,6,6],"right_children":[2,4,6,8,10,12,14,-1,-1,-1,-1,-1,-1,-1,-1],"split_conditions":[2.6342716E1,2.6169247E1,7.407693E1,8.939286E1,2.620635E1,3.9623272E0,1.3203571E1,8.755442E-2,3.1057691E-2,2.6676306E-3,5.075227E-2,6.1377943E-2,-5.953527E-3,1.0521762E-1,3.8611356E-2],"split_indices":[7,7,2,2,7,3,0,0,0,0,0,0,0,0,0],"split_type":[0,0,0,0,0,0,0,0,0,0,0,0,0,0,0],"sum_hessian":[1.1596506E2,5.7083855E1,5.88812E1,4.6495655E1,1.0588201E1,6.912587E0,5.1968613E1,4.298826E1,3.507396E0,2.9234753E0,7.664725E0,4.57594E0,2.336647E0,5.044753E1,1.521086E0],"tree_param":{"num_deleted":"0","num_feature":"12","num_nodes":"15","size_leaf_vector":"1"}},{"base_weights":[-3.5966697E-1,5.9960365E-1,-4.1373986E-1,4.1731957E-2,3.443211E-3,-2.4911817E-2,-3.210755E-1,3.4045335E-2,-1.7434072E-2],"categories":[],"categories_nodes":[],"categories_segments":[],"categories_sizes":[],"default_left":[0,0,0,0,0,0,0,0,0],"id":51,"left_children":[1,3,5,-1,-1,-1,7,-1,-1],"loss_changes":[3.668354E0,5.2548647E-1,4.9921703E-1,0E0,0E0,0E0,2.1633546E0,0E0,0E0],"parents":[2147483647,0,0,1,1,2,2,6,6],"right_children":[2,4,6,-1,-1,-1,8,-1,-1],"split_conditions":[1.9117E0,3.7751162E3,4.1862573E3,4.1731957E-2,3.443211E-3,-2.4911817E-2,4.3344536E3,3.4045335E-2,-1.7434072E-2],"split_indices":[3,11,11,0,0,0,11,0,0],"split_type":[0,0,0,0,0,0,0,0,0],"sum_hessian":[6.49387E1,2.9268372E0,6.2011864E1,1.4567645E0,1.4700729E0,2.5629196E1,3.6382664E1,1.0041196E0,3.5378548E1],"tree_param":{"num_deleted":"0","num_feature":"12","num_nodes":"9","size_leaf_vector":"1"}},{"base_weights":[-4.630503E-1,-4.9062872E-1,8.914657E-3,-5.053464E-1,-5.054163E-2,-1.8544186E-2,3.2549694E-2,-9.446951E-3,-2.4542918E-2,-1.3069073E-2,9.107916E-3],"categories":[],"categories_nodes":[],"categories_segments":[],"categories_sizes":[],"default_left":[0,0,0,0,0,0,0,0,0,0,0],"id":52,"left_children":[1,3,5,7,9,-1,-1,-1,-1,-1,-1],"loss_changes":[8.4609604E-1,3.7030983E-1,1.5188416E0,1.6790771E-1,2.2409828E-1,0E0,0E0,0E0,0E0,0E0,0E0],"parents":[2147483647,0,0,1,1,2,2,3,3,4,4],"right_children":[2,4,6,8,10,-1,-1,-1,-1,-1,-1],"split_conditions":[4.844955E4,8.981098E1,1.0426517E1,1.4806452E0,2.5160595E1,-1.8544186E-2,3.2549694E-2,-9.446951E-3,-2.4542918E-2,-1.3069073E-2,9.107916E-3],"split_indices":[11,2,6,6,1,0,0,0,0,0,0],"split_type":[0,0,0,0,0,0,0,0,0,0,0],"sum_hessian":[6.366798E1,6.0115685E1,3.5522966E0,5.802682E1,2.0888624E0,2.4996731E0,1.0526236E0,3.4132514E0,5.461357E1,1.0112197E0,1.0776426E0],"tree_param":{"num_deleted":"0","num_feature":"12","num_nodes":"11","size_leaf_vector":"1"}},{"base_weights":[-1.8896683E-1,-4.7561333E-1,-5.7808656E-2,-2.445489E-2,-1.5187451E-1,2.565666E-1,-2.2087406E-1,9.877834E-3,-1.6846111E-2,-1.9872027E-2,7.29684E-2,2.2208195E-3,-2.1701014E-2],"categories":[],"categories_nodes":[],"categories_segments":[],"categories_sizes":[],"default_left":[0,0,0,0,0,0,0,0,0,0,0,0,0],"id":53,"left_children":[1,3,5,-1,7,9,11,-1,-1,-1,-1,-1,-1],"loss_changes":[2.5100346E0,2.141571E-1,2.4888718E0,0E0,3.6286882E-1,1.5238197E1,2.0596375E0,0E0,0E0,0E0,0E0,0E0,0E0],"parents":[2147483647,0,0,1,1,2,2,4,4,5,5,6,6],"right_children":[2,4,6,-1,8,10,12,-1,-1,-1,-1,-1,-1],"split_conditions":[6.9316425E0,2.7788252E1,3.636841E3,-2.445489E-2,3.6924019E3,3.60953E3,2.6201582E1,9.877834E-3,-1.6846111E-2,-1.9872027E-2,7.29684E-2,2.2208195E-3,-2.1701014E-2],"split_indices":[0,7,11,0,11,11,7,0,0,0,0,0,0],"split_type":[0,0,0,0,0,0,0,0,0,0,0,0,0],"sum_hessian":[6.6494606E1,2.0049694E1,4.6444916E1,1.7168295E1,2.8813994E0,1.5666988E1,3.0777925E1,1.0369341E0,1.8444653E0,1.071348E1,4.9535084E0,1.4898917E1,1.5879009E1],"tree_param":{"num_deleted":"0","num_feature":"12","num_nodes":"13","size_leaf_vector":"1"}},{"base_weights":[-4.6258396E-1,-6.962347E-2,-5.043497E-1,-2.0291163E-2,1.8672222E-2,-2.4561571E-2,9.9969255E-3],"categories":[],"categories_nodes":[],"categories_segments":[],"categories_sizes":[],"default_left":[0,0,0,0,0,0,0],"id":54,"left_children":[1,3,5,-1,-1,-1,-1],"loss_changes":[1.0185823E0,1.4010046E0,7.948828E-1,0E0,0E0,0E0,0E0],"parents":[2147483647,0,0,1,1,2,2],"right_children":[2,4,6,-1,-1,-1,-1],"split_conditions":[2.5386427E1,8.642225E0,5.084916E4,-2.0291163E-2,1.8672222E-2,-2.4561571E-2,9.9969255E-3],"split_indices":[1,3,11,0,0,0,0],"split_type":[0,0,0,0,0,0,0],"sum_hessian":[6.3201687E1,6.3282485E0,5.6873436E1,3.6086004E0,2.7196484E0,5.585893E1,1.0145094E0],"tree_param":{"num_deleted":"0","num_feature":"12","num_nodes":"7","size_leaf_vector":"1"}},{"base_weights":[-3.916802E-1,4.7349975E-1,-4.4571632E-1,4.0425863E-2,-1.4213998E-2,1.4861828E-1,-4.7392485E-1,-1.5634118E-2,3.0487962E-2,-2.3596289E-2,-1.2669444E-2],"categories":[],"categories_nodes":[],"categories_segments":[],"categories_sizes":[],"default_left":[0,0,0,0,0,0,0,0,0,0,0],"id":55,"left_children":[1,3,5,-1,-1,7,9,-1,-1,-1,-1],"loss_changes":[3.3342876E0,1.5705721E0,1.1332521E0,0E0,0E0,1.0831141E0,1.9560719E-1,0E0,0E0,0E0,0E0],"parents":[2147483647,0,0,1,1,2,2,5,5,6,6],"right_children":[2,4,6,-1,-1,8,10,-1,-1,-1,-1],"split_conditions":[1.9117E0,4.0851724E3,2.5399971E1,4.0425863E-2,-1.4213998E-2,3.7751162E3,3.512567E4,-1.5634118E-2,3.0487962E-2,-2.3596289E-2,-1.2669444E-2],"split_indices":[3,11,4,0,0,11,11,0,0,0,0],"split_type":[0,0,0,0,0,0,0,0,0,0,0],"sum_hessian":[6.5805954E1,3.4120753E0,6.2393883E1,2.2108657E0,1.2012097E0,2.63376E0,5.976012E1,1.5108954E0,1.1228646E0,5.1661144E1,8.098976E0],"tree_param":{"num_deleted":"0","num_feature":"12","num_nodes":"11","size_leaf_vector":"1"}},{"base_weights":[-2.8000093E-1,2.903579E-2,-4.4232935E-1,-4.2223915E-1,4.6500477E-1,-2.2534935E-2,-2.1662675E-1,-2.4125754E-4,-2.343196E-2,5.654775E-2,-2.1814078E-2,4.9737394E-3,-2.0437486E-2],"categories":[],"categories_nodes":[],"categories_segments":[],"categories_sizes":[],"default_left":[0,0,0,0,0,0,0,0,0,0,0,0,0],"id":56,"left_children":[1,3,5,7,9,-1,11,-1,-1,-1,-1,-1,-1],"loss_changes":[3.2596097E0,4.766075E0,2.3746681E-1,3.6924148E-1,8.924183E0,0E0,5.7721186E-1,0E0,0E0,0E0,0E0,0E0,0E0],"parents":[2147483647,0,0,1,1,2,2,3,3,4,4,6,6],"right_children":[2,4,6,8,10,-1,12,-1,-1,-1,-1,-1,-1],"split_conditions":[2E0,2E0,8.842281E1,7.863217E1,3E0,-2.2534935E-2,1.3203571E1,-2.4125754E-4,-2.343196E-2,5.654775E-2,-2.1814078E-2,4.9737394E-3,-2.0437486E-2],"split_indices":[10,9,5,8,9,0,3,0,0,0,0,0,0],"split_type":[0,0,0,0,0,0,0,0,0,0,0,0,0],"sum_hessian":[6.3721195E1,2.2227043E1,4.1494152E1,1.0937276E1,1.1289768E1,3.4882168E1,6.611984E0,1.8227772E0,9.114499E0,6.1385546E0,5.151213E0,2.8663719E0,3.745612E0],"tree_param":{"num_deleted":"0","num_feature":"12","num_nodes":"13","size_leaf_vector":"1"}},{"base_weights":[-3.3097374E-1,-4.972446E-1,-1.9308192E-1,8.1763865E-4,-2.4965972E-2,-3.2208657E-1,1.9037418E-1,1.6586566E-2,-1.7961673E-2,2.7700642E-3,3.1855766E-2],"categories":[],"categories_nodes":[],"categories_segments":[],"categories_sizes":[],"default_left":[0,0,0,0,0,0,0,0,0,0,0],"id":57,"left_children":[1,3,5,-1,-1,7,9,-1,-1,-1,-1],"loss_changes":[1.4255953E0,4.9705458E-1,1.9368302E0,0E0,0E0,1.2729971E0,6.099864E-1,0E0,0E0,0E0,0E0],"parents":[2147483647,0,0,1,1,2,2,5,5,6,6],"right_children":[2,4,6,-1,-1,8,10,-1,-1,-1,-1],"split_conditions":[4.3884614E3,2.5307371E1,1.0426517E1,8.1763865E-4,-2.4965972E-2,5.4501333E3,1.1018028E1,1.6586566E-2,-1.7961673E-2,2.7700642E-3,3.1855766E-2],"split_indices":[11,1,0,0,0,11,3,0,0,0,0],"split_type":[0,0,0,0,0,0,0,0,0,0,0],"sum_hessian":[6.53662E1,2.8452248E1,3.6913956E1,1.7022656E0,2.674998E1,2.7741152E1,9.172804E0,1.8271418E0,2.591401E1,8.097061E0,1.0757432E0],"tree_param":{"num_deleted":"0","num_feature":"12","num_nodes":"11","size_leaf_vector":"1"}},{"base_weights":[-4.292657E-1,1.2843978E-2,-4.5772895E-1,-4.8776078E-1,1.343381E-1,-2.448425E-2,-6.8832594E-3,2.731574E-2,-1.5395201E-2],"categories":[],"categories_nodes":[],"categories_segments":[],"categories_sizes":[],"default_left":[0,0,0,0,0,0,0,0,0],"id":58,"left_children":[1,-1,3,5,7,-1,-1,-1,-1],"loss_changes":[1.3801241E0,0E0,1.1463585E0,5.485859E-1,9.515172E-1,0E0,0E0,0E0,0E0],"parents":[2147483647,0,0,2,2,3,3,4,4],"right_children":[2,-1,4,6,8,-1,-1,-1,-1],"split_conditions":[2.527619E1,1.2843978E-2,4.8857305E4,2.7920944E1,9.235429E0,-2.448425E-2,-6.8832594E-3,2.731574E-2,-1.5395201E-2],"split_indices":[4,0,11,1,6,0,0,0,0],"split_type":[0,0,0,0,0,0,0,0,0],"sum_hessian":[6.1864033E1,2.0777097E0,5.978632E1,5.7067802E1,2.718518E0,5.178253E1,5.28527E0,1.2523198E0,1.4661982E0],"tree_param":{"num_deleted":"0","num_feature":"12","num_nodes":"9","size_leaf_vector":"1"}},{"base_weights":[-3.0069193E-1,3.8142988E-1,-4.0219977E-1,5.7478473E-2,-1.5613368E-1,-4.3101323E-1,1.3822353E-1,-1.9106744E-2,6.6362503E-3,-2.164667E-2,-5.6324326E-3,3.267794E-2,-1.6153133E-2],"categories":[],"categories_nodes":[],"categories_segments":[],"categories_sizes":[],"default_left":[0,0,0,0,0,0,0,0,0,0,0,0,0],"id":59,"left_children":[1,3,5,-1,7,9,11,-1,-1,-1,-1,-1,-1],"loss_changes":[4.7383704E0,4.2829504E0,9.6469784E-1,0E0,5.319166E-1,4.2927456E-1,1.2240527E0,0E0,0E0,0E0,0E0,0E0,0E0],"parents":[2147483647,0,0,1,1,2,2,4,4,5,5,6,6],"right_children":[2,4,6,-1,8,10,12,-1,-1,-1,-1,-1,-1],"split_conditions":[2.5666315E1,2.5482754E1,4.8996527E4,5.7478473E-2,7.062309E3,2.7574947E1,2.6008526E1,-1.9106744E-2,6.6362503E-3,-2.164667E-2,-5.6324326E-3,3.267794E-2,-1.6153133E-2],"split_indices":[4,7,11,0,11,1,1,0,0,0,0,0,0],"split_type":[0,0,0,0,0,0,0,0,0,0,0,0,0],"sum_hessian":[6.521768E1,8.090792E0,5.7126892E1,2.6675422E0,5.4232492E0,5.4427464E1,2.6994286E0,2.7507074E0,2.6725419E0,4.9500534E1,4.9269276E0,1.0483583E0,1.6510701E0],"tree_param":{"num_deleted":"0","num_feature":"12","num_nodes":"13","size_leaf_vector":"1"}},{"base_weights":[1.7064946E0,1.0306699E0,1.7664171E0,4.1821113E-1,8.7091535E-2,1.587194E0,9.638318E-2,5.3907678E-2,-6.0065235E-3,8.8669755E-2,6.005327E-2],"categories":[],"categories_nodes":[],"categories_segments":[],"categories_sizes":[],"default_left":[0,0,0,0,0,0,0,0,0,0,0],"id":60,"left_children":[1,3,5,7,-1,9,-1,-1,-1,-1,-1],"loss_changes":[3.2780762E0,5.5537777E0,2.4381409E0,3.516591E0,0E0,4.4004974E0,0E0,0E0,0E0,0E0,0E0],"parents":[2147483647,0,0,1,1,2,2,3,3,5,5],"right_children":[2,4,6,8,-1,10,-1,-1,-1,-1,-1],"split_conditions":[2.5666315E1,1.3298997E1,8.181823E1,8.810786E1,8.7091535E-2,7.964695E1,9.638318E-2,5.3907678E-2,-6.0065235E-3,8.8669755E-2,6.005327E-2],"split_indices":[4,3,5,5,0,5,0,0,0,0,0],"split_type":[0,0,0,0,0,0,0,0,0,0,0],"sum_hessian":[1.2490181E2,1.1654869E1,1.1324694E2,7.522585E0,4.1322837E0,7.289146E1,4.0355488E1,2.759915E0,4.7626696E0,3.509677E1,3.7794685E1],"tree_param":{"num_deleted":"0","num_feature":"12","num_nodes":"11","size_leaf_vector":"1"}},{"base_weights":[-3.360427E-1,4.836627E-1,-3.8977343E-1,3.8020503E-2,-1.32523775E-2,-2.4742732E-2,-2.9177016E-1,3.315313E-2,-1.601867E-2],"categories":[],"categories_nodes":[],"categories_segments":[],"categories_sizes":[],"default_left":[0,0,0,0,0,0,0,0,0],"id":61,"left_children":[1,3,5,-1,-1,-1,7,-1,-1],"loss_changes":[2.9892273E0,1.3017244E0,6.433754E-1,0E0,0E0,0E0,2.009716E0,0E0,0E0],"parents":[2147483647,0,0,1,1,2,2,6,6],"right_children":[2,4,6,-1,-1,-1,8,-1,-1],"split_conditions":[7.035182E1,2.7063346E0,4.1862573E3,3.8020503E-2,-1.32523775E-2,-2.4742732E-2,4.3168223E3,3.315313E-2,-1.601867E-2],"split_indices":[5,0,11,0,0,0,11,0,0],"split_type":[0,0,0,0,0,0,0,0,0],"sum_hessian":[6.258979E1,3.3580742E0,5.9231716E1,2.323474E0,1.0346005E0,2.3089235E1,3.614248E1,1.0328908E0,3.510959E1],"tree_param":{"num_deleted":"0","num_feature":"12","num_nodes":"9","size_leaf_vector":"1"}},{"base_weights":[-4.5947582E-1,-4.878657E-1,3.4239452E-2,-5.025012E-1,-1.05940804E-1,2.8050851E-2,-1.7653054E-2,-6.1984654E-3,-2.4448484E-2,-1.4922616E-2,8.364608E-3],"categories":[],"categories_nodes":[],"categories_segments":[],"categories_sizes":[],"default_left":[0,0,0,0,0,0,0,0,0,0,0],"id":62,"left_children":[1,3,5,7,9,-1,-1,-1,-1,-1,-1],"loss_changes":[8.9907837E-1,2.7988148E-1,1.220838E0,2.7017403E-1,2.6289E-1,0E0,0E0,0E0,0E0,0E0,0E0],"parents":[2147483647,0,0,1,1,2,2,3,3,4,4],"right_children":[2,4,6,8,10,-1,-1,-1,-1,-1,-1],"split_conditions":[4.844955E4,1.7223299E1,4.9247254E4,6.945853E1,8.642225E0,2.8050851E-2,-1.7653054E-2,-6.1984654E-3,-2.4448484E-2,-1.4922616E-2,8.364608E-3],"split_indices":[11,0,11,8,3,0,0,0,0,0,0],"split_type":[0,0,0,0,0,0,0,0,0,0,0],"sum_hessian":[6.195249E1,5.8594982E1,3.3575096E0,5.612841E1,2.4665713E0,1.2232673E0,2.1342423E0,2.6955924E0,5.343282E1,1.3480325E0,1.1185389E0],"tree_param":{"num_deleted":"0","num_feature":"12","num_nodes":"11","size_leaf_vector":"1"}},{"base_weights":[-2.1314429E-1,-4.7458684E-1,-8.982299E-2,-2.432276E-1,-2.4308624E-2,-3.413321E-1,5.204264E-2,-1.9448245E-2,1.0122317E-2,-2.3940919E-2,7.5759375E-3,2.082844E-2,-6.882347E-3],"categories":[],"categories_nodes":[],"categories_segments":[],"categories_sizes":[],"default_left":[0,0,0,0,0,0,0,0,0,0,0,0,0],"id":63,"left_children":[1,3,5,7,-1,9,11,-1,-1,-1,-1,-1,-1],"loss_changes":[2.1031513E0,7.4299335E-2,1.6753286E0,4.807988E-1,0E0,1.49178E0,2.4228525E0,0E0,0E0,0E0,0E0,0E0,0E0],"parents":[2147483647,0,0,1,1,2,2,3,3,5,5,6,6],"right_children":[2,4,6,8,-1,10,12,-1,-1,-1,-1,-1,-1],"split_conditions":[6.9316425E0,7.407693E1,2.582432E1,7.115765E1,-2.4308624E-2,9.224286E0,3.636841E3,-1.9448245E-2,1.0122317E-2,-2.3940919E-2,7.5759375E-3,2.082844E-2,-6.882347E-3],"split_indices":[0,8,1,8,0,3,11,0,0,0,0,0,0],"split_type":[0,0,0,0,0,0,0,0,0,0,0,0,0],"sum_hessian":[6.5553474E1,2.0097713E1,4.545576E1,4.0633087E0,1.6034405E1,1.5885981E1,2.956978E1,3.0394518E0,1.023857E0,1.192313E1,3.9628503E0,9.548091E0,2.0021688E1],"tree_param":{"num_deleted":"0","num_feature":"12","num_nodes":"13","size_leaf_vector":"1"}},{"base_weights":[-4.4386953E-1,-4.871083E-1,1.6563518E-1,-2.9508775E-1,-2.4337677E-2,-1.5319469E-2,4.655902E-1,-2.2955002E-2,3.3136383E-2,2.7140843E-2,6.754964E-3],"categories":[],"categories_nodes":[],"categories_segments":[],"categories_sizes":[],"default_left":[0,0,0,0,0,0,0,0,0,0,0],"id":64,"left_children":[1,3,5,7,-1,-1,9,-1,-1,-1,-1],"loss_changes":[1.7373171E0,1.7601013E-1,8.7369174E-1,2.268375E0,0E0,0E0,4.012537E-2,0E0,0E0,0E0,0E0],"parents":[2147483647,0,0,1,1,2,2,3,3,6,6],"right_children":[2,4,6,8,-1,-1,10,-1,-1,-1,-1],"split_conditions":[8.939286E1,7.4752846E1,8.642225E0,7.407693E1,-2.4337677E-2,-1.5319469E-2,1.3402374E1,-2.2955002E-2,3.3136383E-2,2.7140843E-2,6.754964E-3],"split_indices":[2,2,3,2,0,0,0,0,0,0,0],"split_type":[0,0,0,0,0,0,0,0,0,0,0],"sum_hessian":[6.186033E1,5.7950115E1,3.9102147E0,9.070703E0,4.8879414E1,1.4522882E0,2.4579268E0,8.038428E0,1.0322744E0,1.2469798E0,1.2109468E0],"tree_param":{"num_deleted":"0","num_feature":"12","num_nodes":"11","size_leaf_vector":"1"}},{"base_weights":[-3.6758956E-1,5.0071186E-1,-4.2314726E-1,3.892833E-2,-1.3080657E-2,-4.4810772E-1,-1.05979405E-1,-2.237851E-2,-1.1020594E-2,2.1339092E-2,-1.967898E-2],"categories":[],"categories_nodes":[],"categories_segments":[],"categories_sizes":[],"default_left":[0,0,0,0,0,0,0,0,0,0,0],"id":65,"left_children":[1,3,5,-1,-1,7,9,-1,-1,-1,-1],"loss_changes":[3.2879477E0,1.313906E0,4.312477E-1,0E0,0E0,2.0533848E-1,1.1837376E0,0E0,0E0,0E0,0E0],"parents":[2147483647,0,0,1,1,2,2,5,5,6,6],"right_children":[2,4,6,-1,-1,8,10,-1,-1,-1,-1],"split_conditions":[1.9117E0,4.0851724E3,1.5521628E1,3.892833E-2,-1.3080657E-2,2.751414E1,1.5812381E1,-2.237851E-2,-1.1020594E-2,2.1339092E-2,-1.967898E-2],"split_indices":[3,11,0,0,0,1,0,0,0,0,0],"split_type":[0,0,0,0,0,0,0,0,0,0,0],"sum_hessian":[6.27649E1,3.2926226E0,5.9472275E1,2.2799363E0,1.0126863E0,5.475067E1,4.7216043E0,4.7656403E1,7.0942693E0,1.5276744E0,3.19393E0],"tree_param":{"num_deleted":"0","num_feature":"12","num_nodes":"11","size_leaf_vector":"1"}},{"base_weights":[-2.8326306E-1,-9.2037395E-4,-4.403838E-1,-4.2423022E-1,3.901503E-1,-2.373272E-2,-1.154223E-1,-1.6824013E-3,-2.3402538E-2,4.7530025E-2,-2.1840634E-2,-2.1409957E-2,2.3309842E-2],"categories":[],"categories_nodes":[],"categories_segments":[],"categories_sizes":[],"default_left":[0,0,0,0,0,0,0,0,0,0,0,0,0],"id":66,"left_children":[1,3,5,7,9,-1,11,-1,-1,-1,-1,-1,-1],"loss_changes":[2.9112844E0,4.216122E0,8.037834E-1,3.246503E-1,7.446175E0,0E0,1.9041196E0,0E0,0E0,0E0,0E0,0E0,0E0],"parents":[2147483647,0,0,1,1,2,2,3,3,4,4,6,6],"right_children":[2,4,6,8,10,-1,12,-1,-1,-1,-1,-1,-1],"split_conditions":[2E0,2E0,1.3620976E1,7.863217E1,3E0,-2.373272E-2,6.378481E3,-1.6824013E-3,-2.3402538E-2,4.7530025E-2,-2.1840634E-2,-2.1409957E-2,2.3309842E-2],"split_indices":[10,9,0,8,9,0,11,0,0,0,0,0,0],"split_type":[0,0,0,0,0,0,0,0,0,0,0,0,0],"sum_hessian":[6.463493E1,2.3468458E1,4.1166473E1,1.1228985E1,1.2239474E1,3.403078E1,7.1356907E0,1.9903973E0,9.238587E0,6.9944053E0,5.245069E0,4.752099E0,2.3835914E0],"tree_param":{"num_deleted":"0","num_feature":"12","num_nodes":"13","size_leaf_vector":"1"}},{"base_weights":[-3.8756007E-1,-2.4967495E-2,-2.672411E-1,3.9962956E-1,-3.3143085E-1,-1.6192265E-2,5.4731574E-2,-2.4346607E-2,-6.83995E-3],"categories":[],"categories_nodes":[],"categories_segments":[],"categories_sizes":[],"default_left":[0,0,0,0,0,0,0,0,0],"id":67,"left_children":[1,-1,3,5,7,-1,-1,-1,-1],"loss_changes":[9.727106E-1,0E0,1.7305663E0,2.5084445E0,1.117378E0,0E0,0E0,0E0,0E0],"parents":[2147483647,0,0,2,2,3,3,4,4],"right_children":[2,-1,4,6,8,-1,-1,-1,-1],"split_conditions":[4.3884614E3,-2.4967495E-2,5.4501333E3,8.0610176E1,8.0497314E1,-1.6192265E-2,5.4731574E-2,-2.4346607E-2,-6.83995E-3],"split_indices":[11,0,11,5,2,0,0,0,0],"split_type":[0,0,0,0,0,0,0,0,0],"sum_hessian":[6.42567E1,2.7922977E1,3.6333717E1,2.7313921E0,3.3602325E1,1.6597399E0,1.0716523E0,1.5980857E1,1.7621468E1],"tree_param":{"num_deleted":"0","num_feature":"12","num_nodes":"9","size_leaf_vector":"1"}},{"base_weights":[-4.1231415E-1,1.2480257E-2,-4.400967E-1,-4.8104364E-1,-1.2117627E-1,-1.5241118E-2,-2.5124721E-2,9.1980705E-3,-2.0193435E-2],"categories":[],"categories_nodes":[],"categories_segments":[],"categories_sizes":[],"default_left":[0,0,0,0,0,0,0,0,0],"id":68,"left_children":[1,-1,3,5,7,-1,-1,-1,-1],"loss_changes":[1.2995224E0,0E0,7.3564434E-1,2.6519966E-1,8.8502985E-1,0E0,0E0,0E0,0E0],"parents":[2147483647,0,0,2,2,3,3,4,4],"right_children":[2,-1,4,6,8,-1,-1,-1,-1],"split_conditions":[2.527619E1,1.2480257E-2,2.7574947E1,6.114661E0,2.8232143E1,-1.5241118E-2,-2.5124721E-2,9.1980705E-3,-2.0193435E-2],"split_indices":[4,0,1,6,1,0,0,0,0],"split_type":[0,0,0,0,0,0,0,0,0],"sum_hessian":[6.1900986E1,2.104117E0,5.9796867E1,5.254247E1,7.2544003E0,1.47641115E1,3.777836E1,3.7534518E0,3.5009484E0],"tree_param":{"num_deleted":"0","num_feature":"12","num_nodes":"9","size_leaf_vector":"1"}},{"base_weights":[-3.3473393E-1,2.8125124E-2,-3.7596622E-1,-4.4124465E-2,-4.1098034E-1,-1.1282858E-2,1.3881058E-2,-2.0604325E-2,-6.1160373E-3],"categories":[],"categories_nodes":[],"categories_segments":[],"categories_sizes":[],"default_left":[0,0,0,0,0,0,0,0,0],"id":69,"left_children":[1,-1,3,5,7,-1,-1,-1,-1],"loss_changes":[2.6452427E0,0E0,6.9059277E-1,5.2897996E-1,3.4535503E-1,0E0,0E0,0E0,0E0],"parents":[2147483647,0,0,2,2,3,3,4,4],"right_children":[2,-1,4,6,8,-1,-1,-1,-1],"split_conditions":[2.527619E1,2.8125124E-2,2.5666315E1,2.5461704E1,2.7574947E1,-1.1282858E-2,1.3881058E-2,-2.0604325E-2,-6.1160373E-3],"split_indices":[4,0,4,4,1,0,0,0,0],"split_type":[0,0,0,0,0,0,0,0,0],"sum_hessian":[6.2056915E1,2.0604267E0,5.999649E1,5.942014E0,5.4054474E1,3.9550314E0,1.9869831E0,4.898044E1,5.074035E0],"tree_param":{"num_deleted":"0","num_feature":"12","num_nodes":"9","size_leaf_vector":"1"}},{"base_weights":[1.5246813E0,2.676859E-3,1.5405661E0,1.5907701E0,8.757304E-1,8.58401E-2,6.715218E-2,-5.980782E-3,7.6945454E-2],"categories":[],"categories_nodes":[],"categories_segments":[],"categories_sizes":[],"default_left":[0,0,0,0,0,0,0,0,0],"id":70,"left_children":[1,-1,3,5,7,-1,-1,-1,-1],"loss_changes":[2.9369507E0,0E0,2.8885498E0,1.926117E0,8.7196245E0,0E0,0E0,0E0,0E0],"parents":[2147483647,0,0,2,2,3,3,4,4],"right_children":[2,-1,4,6,8,-1,-1,-1,-1],"split_conditions":[1.2757182E0,2.676859E-3,8.842281E1,2.6125011E1,1.3298997E1,8.58401E-2,6.715218E-2,-5.980782E-3,7.6945454E-2],"split_indices":[3,0,5,1,3,0,0,0,0],"split_type":[0,0,0,0,0,0,0,0,0],"sum_hessian":[1.287062E2,1.42682E0,1.2727939E2,1.1704796E2,1.0231436E1,4.5068806E1,7.197915E1,4.756228E0,5.475208E0],"tree_param":{"num_deleted":"0","num_feature":"12","num_nodes":"9","size_leaf_vector":"1"}},{"base_weights":[-3.3320695E-1,5.2824724E-1,-3.8774598E-1,-1.312539E-2,4.1325465E-2,-1.3750245E-1,-4.2174003E-1,-1.4820989E-2,1.4175419E-2,-2.0558974E-2,-3.5344944E-3],"categories":[],"categories_nodes":[],"categories_segments":[],"categories_sizes":[],"default_left":[0,0,0,0,0,0,0,0,0,0,0],"id":71,"left_children":[1,3,5,-1,-1,7,9,-1,-1,-1,-1],"loss_changes":[3.1673088E0,1.4169338E0,4.513693E-1,0E0,0E0,7.6407796E-1,2.2524548E-1,0E0,0E0,0E0,0E0],"parents":[2147483647,0,0,1,1,2,2,5,5,6,6],"right_children":[2,4,6,-1,-1,8,10,-1,-1,-1,-1],"split_conditions":[1.9117E0,2.7274805E1,2.5454147E1,-1.312539E-2,4.1325465E-2,2.5386427E1,2.7920944E1,-1.4820989E-2,1.4175419E-2,-2.0558974E-2,-3.5344944E-3],"split_indices":[3,4,7,0,0,7,7,0,0,0,0],"split_type":[0,0,0,0,0,0,0,0,0,0,0],"sum_hessian":[6.2054504E1,3.1776268E0,5.8876877E1,1.0183964E0,2.1592305E0,7.6448717E0,5.1232006E1,5.648196E0,1.9966754E0,4.8964283E1,2.2677245E0],"tree_param":{"num_deleted":"0","num_feature":"12","num_nodes":"11","size_leaf_vector":"1"}},{"base_weights":[-4.5552534E-1,-4.6875307E-1,-3.6969117E-3,-2.6661298E-1,-2.3378965E-2,-2.2524342E-2,3.2462187E-2],"categories":[],"categories_nodes":[],"categories_segments":[],"categories_sizes":[],"default_left":[0,0,0,0,0,0,0],"id":72,"left_children":[1,3,-1,5,-1,-1,-1],"loss_changes":[2.6763916E-1,1.8878746E-1,0E0,2.161357E0,0E0,0E0,0E0],"parents":[2147483647,0,0,1,1,3,3],"right_children":[2,4,-1,6,-1,-1,-1],"split_conditions":[1.7223299E1,7.4752846E1,-3.6969117E-3,7.407693E1,-2.3378965E-2,-2.2524342E-2,3.2462187E-2],"split_indices":[0,2,0,2,0,0,0],"split_type":[0,0,0,0,0,0,0],"sum_hessian":[6.001728E1,5.7748787E1,2.2684941E0,8.092178E0,4.965661E1,7.0369554E0,1.0552225E0],"tree_param":{"num_deleted":"0","num_feature":"12","num_nodes":"7","size_leaf_vector":"1"}},{"base_weights":[-2.0659691E-1,3.8836993E-2,-3.454223E-1,-4.183247E-1,4.296369E-1,-4.4889218E-1,-1.7139892E-1,-2.3395618E-2,3.3249203E-3,5.8458634E-2,-1.1604789E-2,-2.2564732E-2,-9.319938E-3,3.2703376E-3,-2.265013E-2],"categories":[],"categories_nodes":[],"categories_segments":[],"categories_sizes":[],"default_left":[0,0,0,0,0,0,0,0,0,0,0,0,0,0,0],"id":73,"left_children":[1,3,5,7,9,11,13,-1,-1,-1,-1,-1,-1,-1,-1],"loss_changes":[2.2411923E0,4.560569E0,6.7684937E-1,4.8409224E-1,7.811387E0,9.622002E-2,1.3145698E0,0E0,0E0,0E0,0E0,0E0,0E0,0E0,0E0],"parents":[2147483647,0,0,1,1,2,2,3,3,4,4,5,5,6,6],"right_children":[2,4,6,8,10,12,14,-1,-1,-1,-1,-1,-1,-1,-1],"split_conditions":[2E0,2E0,9.717884E0,9.291025E3,3.636841E3,2.7788252E1,1.3620976E1,-2.3395618E-2,3.3249203E-3,5.8458634E-2,-1.1604789E-2,-2.2564732E-2,-9.319938E-3,3.2703376E-3,-2.265013E-2],"split_indices":[10,9,0,11,11,7,0,0,0,0,0,0,0,0,0],"split_type":[0,0,0,0,0,0,0,0,0,0,0,0,0,0,0],"sum_hessian":[6.438352E1,2.352072E1,4.08628E1,1.0807529E1,1.271319E1,2.4635601E1,1.6227198E1,9.310595E0,1.4969344E0,5.402358E0,7.3108315E0,2.1228302E1,3.4073005E0,9.555761E0,6.671436E0],"tree_param":{"num_deleted":"0","num_feature":"12","num_nodes":"15","size_leaf_vector":"1"}},{"base_weights":[-4.3786934E-1,-8.9913115E-2,-4.7944954E-1,1.2203884E-2,-1.9811466E-2,-3.642907E-1,-2.4991859E-2,-1.9136986E-2,5.0887913E-3],"categories":[],"categories_nodes":[],"categories_segments":[],"categories_sizes":[],"default_left":[0,0,0,0,0,0,0,0,0],"id":74,"left_children":[1,3,5,-1,-1,7,-1,-1,-1],"loss_changes":[8.2612133E-1,9.889156E-1,1.17902756E-1,0E0,0E0,4.261539E-1,0E0,0E0,0E0],"parents":[2147483647,0,0,1,1,2,2,5,5],"right_children":[2,4,6,-1,-1,8,-1,-1,-1],"split_conditions":[2.5386427E1,2.5666315E1,2.6121313E1,1.2203884E-2,-1.9811466E-2,2.6098413E1,-2.4991859E-2,-1.9136986E-2,5.0887913E-3],"split_indices":[1,4,7,0,0,7,0,0,0],"split_type":[0,0,0,0,0,0,0,0,0],"sum_hessian":[5.9079212E1,6.6438427E0,5.243537E1,3.3366027E0,3.3072402E0,1.849583E1,3.3939537E1,1.7129732E1,1.3660994E0],"tree_param":{"num_deleted":"0","num_feature":"12","num_nodes":"9","size_leaf_vector":"1"}},{"base_weights":[-3.6445507E-1,5.634167E-1,-4.2107528E-1,4.764601E-2,-1.3942835E-2,-4.476996E-1,-2.0678785E-2,-2.2345787E-2,-1.1092975E-2,2.7654182E-2,-1.85956E-2],"categories":[],"categories_nodes":[],"categories_segments":[],"categories_sizes":[],"default_left":[0,0,0,0,0,0,0,0,0,0,0],"id":75,"left_children":[1,3,5,-1,-1,7,9,-1,-1,-1,-1],"loss_changes":[3.5510092E0,1.8559774E0,6.3057613E-1,0E0,0E0,2.0118618E-1,1.318064E0,0E0,0E0,0E0,0E0],"parents":[2147483647,0,0,1,1,2,2,5,5,6,6],"right_children":[2,4,6,-1,-1,8,10,-1,-1,-1,-1],"split_conditions":[1.9117E0,4.0851724E3,8.899232E1,4.764601E-2,-1.3942835E-2,2.734436E1,1.3203571E1,-2.2345787E-2,-1.1092975E-2,2.7654182E-2,-1.85956E-2],"split_indices":[3,11,5,0,0,1,3,0,0,0,0],"split_type":[0,0,0,0,0,0,0,0,0,0,0],"sum_hessian":[6.2075783E1,3.05533E0,5.902045E1,1.8938556E0,1.1614746E0,5.5229813E1,3.7906404E0,4.8077072E1,7.152741E0,1.2272313E0,2.563409E0],"tree_param":{"num_deleted":"0","num_feature":"12","num_nodes":"11","size_leaf_vector":"1"}},{"base_weights":[-3.3812952E-1,-1.6740486E-1,-4.3428028E-1,1.7911376E-1,-2.3904633E-2,-5.004381E-1,-7.434175E-2,-1.18352575E-2,1.0618323E-1,-2.4867766E-2,-1.2601378E-2,-2.0665377E-2,2.2391638E-2],"categories":[],"categories_nodes":[],"categories_segments":[],"categories_sizes":[],"default_left":[0,0,0,0,0,0,0,0,0,0,0,0,0],"id":76,"left_children":[1,3,5,7,-1,9,11,-1,-1,-1,-1,-1,-1],"loss_changes":[9.781003E-1,2.995638E0,9.230032E-1,1.21164875E1,0E0,7.178402E-2,1.6939936E0,0E0,0E0,0E0,0E0,0E0,0E0],"parents":[2147483647,0,0,1,1,2,2,3,3,5,5,6,6],"right_children":[2,4,6,8,-1,10,12,-1,-1,-1,-1,-1,-1],"split_conditions":[2E0,4.156886E3,1.3620976E1,3.636841E3,-2.3904633E-2,1.4187542E1,6.355E3,-1.18352575E-2,1.0618323E-1,-2.4867766E-2,-1.2601378E-2,-2.0665377E-2,2.2391638E-2],"split_indices":[10,11,0,11,0,6,11,0,0,0,0,0,0],"split_type":[0,0,0,0,0,0,0,0,0,0,0,0,0],"sum_hessian":[6.3013474E1,2.3690262E1,3.932321E1,1.1958175E1,1.1732088E1,3.288796E1,6.435252E0,1.0631025E1,1.3271496E0,2.8354298E1,4.533661E0,3.9920897E0,2.4431624E0],"tree_param":{"num_deleted":"0","num_feature":"12","num_nodes":"13","size_leaf_vector":"1"}},{"base_weights":[-3.32191E-1,-3.6949655E-1,2.322999E-1,-4.621912E-1,-2.654362E-1,2.3283437E-2,-1.371923E-2,-2.3071377E-2,-8.488298E-3,8.003021E-3,-1.871353E-2],"categories":[],"categories_nodes":[],"categories_segments":[],"categories_sizes":[],"default_left":[0,0,0,0,0,0,0,0,0,0,0],"id":77,"left_children":[1,3,5,7,9,-1,-1,-1,-1,-1,-1],"loss_changes":[1.4062824E0,4.4837475E-1,7.5939596E-1,1.4077902E-1,1.7965646E0,0E0,0E0,0E0,0E0,0E0,0E0],"parents":[2147483647,0,0,1,1,2,2,3,3,4,4],"right_children":[2,4,6,8,10,-1,-1,-1,-1,-1,-1],"split_conditions":[8.939286E1,8.788219E0,2.5461704E1,2.6673311E1,9.270532E0,2.3283437E-2,-1.371923E-2,-2.3071377E-2,-8.488298E-3,8.003021E-3,-1.871353E-2],"split_indices":[2,6,4,4,6,0,0,0,0,0,0],"split_type":[0,0,0,0,0,0,0,0,0,0,0],"sum_hessian":[6.170339E1,5.8202396E1,3.500992E0,2.8962067E1,2.9240328E1,2.3720424E0,1.1289495E0,2.5757607E1,3.2044597E0,6.714423E0,2.2525906E1],"tree_param":{"num_deleted":"0","num_feature":"12","num_nodes":"11","size_leaf_vector":"1"}},{"base_weights":[-4.2407757E-1,2.124543E-1,-4.526061E-1,2.8371604E-2,-1.3844585E-2,-4.8069113E-1,-1.1593415E-1,-1.5031475E-2,-2.508455E-2,1.4938432E-2,-1.9304765E-2],"categories":[],"categories_nodes":[],"categories_segments":[],"categories_sizes":[],"default_left":[0,0,0,0,0,0,0,0,0,0,0],"id":78,"left_children":[1,3,5,-1,-1,7,9,-1,-1,-1,-1],"loss_changes":[1.2101631E0,8.28967E-1,5.0246525E-1,0E0,0E0,2.800703E-1,8.7421405E-1,0E0,0E0,0E0,0E0],"parents":[2147483647,0,0,1,1,2,2,5,5,6,6],"right_children":[2,4,6,-1,-1,8,10,-1,-1,-1,-1],"split_conditions":[2.527619E1,2.5717142E1,2.7920944E1,2.8371604E-2,-1.3844585E-2,6.114661E0,2.8232143E1,-1.5031475E-2,-2.508455E-2,1.4938432E-2,-1.9304765E-2],"split_indices":[4,1,1,0,0,6,1,0,0,0,0],"split_type":[0,0,0,0,0,0,0,0,0,0,0],"sum_hessian":[6.0346138E1,2.3120642E0,5.8034077E1,1.200116E0,1.111948E0,5.317082E1,4.8632555E0,1.4520032E1,3.8650787E1,1.9331166E0,2.9301388E0],"tree_param":{"num_deleted":"0","num_feature":"12","num_nodes":"11","size_leaf_vector":"1"}},{"base_weights":[-3.393287E-1,-4.0284932E-1,2.856641E-1,-4.5967424E-1,2.0747347E-2,4.6176318E-2,-1.940397E-2,-2.2991708E-2,-1.3882798E-2,-2.1263296E-2,3.747157E-2],"categories":[],"categories_nodes":[],"categories_segments":[],"categories_sizes":[],"default_left":[0,0,0,0,0,0,0,0,0,0,0],"id":79,"left_children":[1,3,5,7,9,-1,-1,-1,-1,-1,-1],"loss_changes":[2.682444E0,1.4325552E0,3.5706284E0,9.696388E-2,3.259933E0,0E0,0E0,0E0,0E0,0E0,0E0],"parents":[2147483647,0,0,1,1,2,2,3,3,4,4],"right_children":[2,4,6,8,10,-1,-1,-1,-1,-1,-1],"split_conditions":[8.899073E1,1.28534565E1,9.687126E0,3.0622986E4,7.062309E3,4.6176318E-2,-1.940397E-2,-2.2991708E-2,-1.3882798E-2,-2.1263296E-2,3.747157E-2],"split_indices":[5,0,0,11,11,0,0,0,0,0,0],"split_type":[0,0,0,0,0,0,0,0,0,0,0],"sum_hessian":[6.3669247E1,5.8117912E1,5.5513325E0,5.1168552E1,6.9493613E0,2.5799942E0,2.9713383E0,4.2110977E1,9.057575E0,4.577084E0,2.3722773E0],"tree_param":{"num_deleted":"0","num_feature":"12","num_nodes":"11","size_leaf_vector":"1"}},{"base_weights":[1.4274671E0,8.087827E-1,1.4805363E0,-1.6888775E-1,1.4702754E0,3.6059306E-3,1.4953246E0,1.6149253E-2,-2.0601353E-2,9.118392E-2,-1.6947336E-2,7.115511E-2,4.384716E-3],"categories":[],"categories_nodes":[],"categories_segments":[],"categories_sizes":[],"default_left":[0,0,0,0,0,0,0,0,0,0,0,0,0],"id":80,"left_children":[1,3,5,7,9,-1,11,-1,-1,-1,-1,-1,-1],"loss_changes":[3.344696E0,8.7416935E0,2.5061646E0,9.98818E-1,7.4236813E0,0E0,2.2424927E0,0E0,0E0,0E0,0E0,0E0,0E0],"parents":[2147483647,0,0,1,1,2,2,3,3,4,4,6,6],"right_children":[2,4,6,8,10,-1,12,-1,-1,-1,-1,-1,-1],"split_conditions":[2.5666315E1,2.5717142E1,9.0153813E-1,1.0682796E1,7.616E3,3.6059306E-3,5.8607316E4,1.6149253E-2,-2.0601353E-2,9.118392E-2,-1.6947336E-2,7.115511E-2,4.384716E-3],"split_indices":[4,1,0,3,11,0,11,0,0,0,0,0,0],"split_type":[0,0,0,0,0,0,0,0,0,0,0,0,0],"sum_hessian":[1.3733955E2,1.2132976E1,1.2520657E2,5.1968465E0,6.936129E0,1.3692942E0,1.2383728E2,1.691461E0,3.5053854E0,5.4890738E0,1.4470551E0,1.22571594E2,1.2656838E0],"tree_param":{"num_deleted":"0","num_feature":"12","num_nodes":"13","size_leaf_vector":"1"}},{"base_weights":[-3.6407912E-1,4.5891187E-1,-4.1948432E-1,-1.2990147E-2,7.517858E-1,-4.5504194E-1,-2.117695E-1,7.858163E-3,4.5415636E-2,-1.19246105E-2,-2.2902159E-2,-2.114315E-2,2.1554898E-3],"categories":[],"categories_nodes":[],"categories_segments":[],"categories_sizes":[],"default_left":[0,0,0,0,0,0,0,0,0,0,0,0,0],"id":81,"left_children":[1,3,5,-1,7,9,11,-1,-1,-1,-1,-1,-1],"loss_changes":[3.0661306E0,1.1647763E0,3.4359837E-1,0E0,2.6625514E-1,1.867218E-1,6.648506E-1,0E0,0E0,0E0,0E0,0E0,0E0],"parents":[2147483647,0,0,1,1,2,2,4,4,5,5,6,6],"right_children":[2,4,6,-1,8,10,12,-1,-1,-1,-1,-1,-1],"split_conditions":[1.9117E0,2.7274805E1,8.8371544E1,-1.2990147E-2,2.051923E3,7.4752846E1,3.9825806E3,7.858163E-3,4.5415636E-2,-1.19246105E-2,-2.2902159E-2,-2.114315E-2,2.1554898E-3],"split_indices":[3,4,8,0,11,8,11,0,0,0,0,0,0],"split_type":[0,0,0,0,0,0,0,0,0,0,0,0,0],"sum_hessian":[6.2020878E1,3.4526236E0,5.8568256E1,1.001291E0,2.4513326E0,4.8991028E1,9.577229E0,1.1249197E0,1.3264129E0,7.6634216E0,4.1327606E1,4.604644E0,4.9725847E0],"tree_param":{"num_deleted":"0","num_feature":"12","num_nodes":"13","size_leaf_vector":"1"}},{"base_weights":[-4.698836E-1,-5.0013834E-1,1.9500317E-2,-5.162115E-1,-8.034382E-2,-1.820087E-2,3.1449795E-2,-6.43563E-3,-2.517087E-2,-1.3911867E-2,8.279619E-3],"categories":[],"categories_nodes":[],"categories_segments":[],"categories_sizes":[],"default_left":[0,0,0,0,0,0,0,0,0,0,0],"id":82,"left_children":[1,3,5,7,9,-1,-1,-1,-1,-1,-1],"loss_changes":[9.0272236E-1,3.4202576E-1,1.4318951E0,2.9113293E-1,2.3201807E-1,0E0,0E0,0E0,0E0,0E0,0E0],"parents":[2147483647,0,0,1,1,2,2,3,3,4,4],"right_children":[2,4,6,8,10,-1,-1,-1,-1,-1,-1],"split_conditions":[4.844955E4,1.7223299E1,1.0426517E1,1.4806452E0,8.642225E0,-1.820087E-2,3.1449795E-2,-6.43563E-3,-2.517087E-2,-1.3911867E-2,8.279619E-3],"split_indices":[11,0,6,6,3,0,0,0,0,0,0],"split_type":[0,0,0,0,0,0,0,0,0,0,0],"sum_hessian":[5.931053E1,5.5836617E1,3.4739137E0,5.3556366E1,2.2802525E0,2.3844352E0,1.0894785E0,2.7560277E0,5.0800335E1,1.1569842E0,1.1232681E0],"tree_param":{"num_deleted":"0","num_feature":"12","num_nodes":"11","size_leaf_vector":"1"}},{"base_weights":[-2.0218444E-1,-1.9393658E-2,-4.5757085E-1,-2.3550043E-2,1.5837285E-1,-2.4637502E-2,-1.727014E-1,1.8017014E-2,-1.1383554E-2,-1.9631298E-2,6.473391E-3],"categories":[],"categories_nodes":[],"categories_segments":[],"categories_sizes":[],"default_left":[0,0,0,0,0,0,0,0,0,0,0],"id":83,"left_children":[1,3,5,-1,7,-1,9,-1,-1,-1,-1],"loss_changes":[3.1409135E0,3.5238929E0,4.2932606E-1,0E0,2.7947447E0,0E0,5.6370103E-1,0E0,0E0,0E0,0E0],"parents":[2147483647,0,0,1,1,2,2,4,4,6,6],"right_children":[2,4,6,-1,8,-1,10,-1,-1,-1,-1],"split_conditions":[3E0,2E0,8.879205E1,-2.3550043E-2,9.485714E3,-2.4637502E-2,7.062309E3,1.8017014E-2,-1.1383554E-2,-1.9631298E-2,6.473391E-3],"split_indices":[10,9,2,0,11,0,11,0,0,0,0],"split_type":[0,0,0,0,0,0,0,0,0,0,0],"sum_hessian":[6.647286E1,3.9370026E1,2.710284E1,1.0150827E1,2.9219196E1,2.1394642E1,5.708199E0,1.8763853E1,1.0455343E1,3.0042207E0,2.7039783E0],"tree_param":{"num_deleted":"0","num_feature":"12","num_nodes":"11","size_leaf_vector":"1"}},{"base_weights":[-4.3804634E-1,-4.6935785E-1,3.345013E-2,-5.170583E-1,2.7146378E-1,-2.5173074E-2,-1.1339591E-2,2.5550967E-2,-1.4642857E-3],"categories":[],"categories_nodes":[],"categories_segments":[],"categories_sizes":[],"default_left":[0,0,0,0,0,0,0,0,0],"id":84,"left_children":[1,3,-1,5,7,-1,-1,-1,-1],"loss_changes":[2.5170012E0,2.252798E0,0E0,1.3371563E-1,3.6624354E-1,0E0,0E0,0E0,0E0],"parents":[2147483647,0,0,1,1,3,3,4,4],"right_children":[2,4,-1,6,8,-1,-1,-1,-1],"split_conditions":[5.847097E4,8.939286E1,3.345013E-2,8.879205E1,1.3402374E1,-2.5173074E-2,-1.1339591E-2,2.5550967E-2,-1.4642857E-3],"split_indices":[11,2,0,2,0,0,0,0,0],"split_type":[0,0,0,0,0,0,0,0,0],"sum_hessian":[5.9791927E1,5.8778843E1,1.013086E0,5.550688E1,3.2719605E0,5.1457077E1,4.0498056E0,1.3100079E0,1.9619527E0],"tree_param":{"num_deleted":"0","num_feature":"12","num_nodes":"9","size_leaf_vector":"1"}},{"base_weights":[-3.6923885E-1,4.3538257E-1,-4.1316342E-1,4.997594E-3,2.7423548E-2,1.0693332E-1,-4.4259915E-1,2.672308E-2,-1.5853724E-2,-2.470136E-2,-1.6806439E-2],"categories":[],"categories_nodes":[],"categories_segments":[],"categories_sizes":[],"default_left":[0,0,0,0,0,0,0,0,0,0,0],"id":85,"left_children":[1,3,5,-1,-1,7,9,-1,-1,-1,-1],"loss_changes":[2.281208E0,1.0999709E-1,9.182997E-1,0E0,0E0,9.754745E-1,1.9165039E-1,0E0,0E0,0E0,0E0],"parents":[2147483647,0,0,1,1,2,2,5,5,6,6],"right_children":[2,4,6,-1,-1,8,10,-1,-1,-1,-1],"split_conditions":[1.9117E0,3.7751162E3,2.5399971E1,4.997594E-3,2.7423548E-2,8.727693E1,2.6360048E1,2.672308E-2,-1.5853724E-2,-2.470136E-2,-1.6806439E-2],"split_indices":[3,11,4,0,0,2,4,0,0,0,0],"split_type":[0,0,0,0,0,0,0,0,0,0,0],"sum_hessian":[5.8455788E1,2.5646071E0,5.5891182E1,1.3184472E0,1.2461598E0,2.8527873E0,5.303839E1,1.263264E0,1.5895234E0,2.4692835E1,2.8345558E1],"tree_param":{"num_deleted":"0","num_feature":"12","num_nodes":"11","size_leaf_vector":"1"}},{"base_weights":[-2.9289907E-1,-3.1927012E-2,-4.3669814E-1,2.827516E-1,-2.3283746E-2,-1.3625623E-1,-4.7521424E-1,-1.1320925E-2,7.015651E-2,-1.9338153E-2,1.2051639E-2,-2.3401847E-2,-1.2996459E-2],"categories":[],"categories_nodes":[],"categories_segments":[],"categories_sizes":[],"default_left":[0,0,0,0,0,0,0,0,0,0,0,0,0],"id":86,"left_children":[1,3,5,7,-1,9,11,-1,-1,-1,-1,-1,-1],"loss_changes":[2.4101782E0,3.6314712E0,4.1627455E-1,9.760788E0,0E0,7.6204157E-1,1.6365051E-2,0E0,0E0,0E0,0E0,0E0,0E0],"parents":[2147483647,0,0,1,1,2,2,3,3,5,5,6,6],"right_children":[2,4,6,8,-1,10,12,-1,-1,-1,-1,-1,-1],"split_conditions":[2E0,8.415909E3,2.5454147E1,3.636841E3,-2.3283746E-2,6.378481E3,3.4514285E4,-1.1320925E-2,7.015651E-2,-1.9338153E-2,1.2051639E-2,-2.3401847E-2,-1.2996459E-2],"split_indices":[10,11,4,11,0,11,11,0,0,0,0,0,0],"split_type":[0,0,0,0,0,0,0,0,0,0,0,0,0],"sum_hessian":[6.359577E1,2.3027184E1,4.056859E1,1.3926145E1,9.101039E0,5.12546E0,3.5443127E1,1.0270686E1,3.6554577E0,2.9895532E0,2.135907E0,3.0717264E1,4.7258635E0],"tree_param":{"num_deleted":"0","num_feature":"12","num_nodes":"13","size_leaf_vector":"1"}},{"base_weights":[-3.1923845E-1,-4.07101E-1,-6.842749E-2,-2.4562858E-2,-2.943598E-1,-2.1164801E-2,9.97091E-2,1.3391654E-2,-1.8394578E-2,2.7738947E-2,-7.848E-3],"categories":[],"categories_nodes":[],"categories_segments":[],"categories_sizes":[],"default_left":[0,0,0,0,0,0,0,0,0,0,0],"id":87,"left_children":[1,3,5,-1,7,-1,9,-1,-1,-1,-1],"loss_changes":[1.3771396E0,4.497862E-1,1.1795465E0,0E0,1.5454247E0,0E0,1.8040075E0,0E0,0E0,0E0,0E0],"parents":[2147483647,0,0,1,1,2,2,4,4,6,6],"right_children":[2,4,6,-1,8,-1,10,-1,-1,-1,-1],"split_conditions":[1.0426517E1,8.788219E0,4.4920635E0,-2.4562858E-2,9.235429E0,-2.1164801E-2,6.804111E0,1.3391654E-2,-1.8394578E-2,2.7738947E-2,-7.848E-3],"split_indices":[0,6,6,0,6,0,6,0,0,0,0],"split_type":[0,0,0,0,0,0,0,0,0,0,0],"sum_hessian":[6.275661E1,4.60141E1,1.6742516E1,2.109919E1,2.4914907E1,4.620188E0,1.2122327E1,3.2587383E0,2.165617E1,3.8481662E0,8.27416E0],"tree_param":{"num_deleted":"0","num_feature":"12","num_nodes":"11","size_leaf_vector":"1"}},{"base_weights":[-4.3771303E-1,-4.6682712E-1,1.01524316E-1,-2.3421267E-2,-1.2630787E-1,-1.6199961E-2,2.8110525E-2,1.275147E-2,-1.924083E-2],"categories":[],"categories_nodes":[],"categories_segments":[],"categories_sizes":[],"default_left":[0,0,0,0,0,0,0,0,0],"id":88,"left_children":[1,3,5,-1,7,-1,-1,-1,-1],"loss_changes":[9.961853E-1,5.2192116E-1,1.0670686E0,0E0,7.7832305E-1,0E0,0E0,0E0,0E0],"parents":[2147483647,0,0,1,1,2,2,4,4],"right_children":[2,4,6,-1,8,-1,-1,-1,-1],"split_conditions":[4.8857305E4,8.899073E1,2.6926586E1,-2.3421267E-2,9.687126E0,-1.6199961E-2,2.8110525E-2,1.275147E-2,-1.924083E-2],"split_indices":[11,5,7,0,0,0,0,0,0],"split_type":[0,0,0,0,0,0,0,0,0],"sum_hessian":[5.9434814E1,5.651764E1,2.9171743E0,5.1540825E1,4.976815E0,1.6962246E0,1.2209496E0,2.08327E0,2.8935454E0],"tree_param":{"num_deleted":"0","num_feature":"12","num_nodes":"9","size_leaf_vector":"1"}},{"base_weights":[-3.3652756E-1,2.2919671E-1,-4.2783403E-1,-1.8194604E-1,4.4171542E-2,-5.0188094E-1,-2.8244078E-1,1.10078305E-2,-2.0359987E-2,-9.773052E-3,-2.4910579E-2,-1.9322949E-2,2.4618737E-2],"categories":[],"categories_nodes":[],"categories_segments":[],"categories_sizes":[],"default_left":[0,0,0,0,0,0,0,0,0,0,0,0,0],"id":89,"left_children":[1,3,5,7,-1,9,11,-1,-1,-1,-1,-1,-1],"loss_changes":[3.4062786E0,2.948859E0,4.556923E-1,8.145393E-1,0E0,1.6628838E-1,2.3663955E0,0E0,0E0,0E0,0E0,0E0,0E0],"parents":[2147483647,0,0,1,1,2,2,3,3,5,5,6,6],"right_children":[2,4,6,8,-1,10,12,-1,-1,-1,-1,-1,-1],"split_conditions":[2.5666315E1,8.791845E1,9.291025E3,1.1018028E1,4.4171542E-2,1.9473704E0,1.0702259E1,1.10078305E-2,-2.0359987E-2,-9.773052E-3,-2.4910579E-2,-1.9322949E-2,2.4618737E-2],"split_indices":[4,8,11,3,0,0,0,0,0,0,0,0,0],"split_type":[0,0,0,0,0,0,0,0,0,0,0,0,0],"sum_hessian":[6.3045418E1,8.551449E0,5.449397E1,5.8783455E0,2.6731033E0,3.448124E1,2.001273E1,2.232232E0,3.6461134E0,3.5613825E0,3.0919857E1,1.7701796E1,2.310933E0],"tree_param":{"num_deleted":"0","num_feature":"12","num_nodes":"13","size_leaf_vector":"1"}},{"base_weights":[1.3291478E0,1.5360107E0,1.2059577E0,1.083138E0,8.451257E-2,1.3480208E0,8.952182E-1,6.092948E-2,-1.2068183E-3,2.532739E-2,6.7435026E-2,-5.9918496E-3,4.9445327E-2],"categories":[],"categories_nodes":[],"categories_segments":[],"categories_sizes":[],"default_left":[0,0,0,0,0,0,0,0,0,0,0,0,0],"id":90,"left_children":[1,3,5,7,-1,9,11,-1,-1,-1,-1,-1,-1],"loss_changes":[1.7826843E0,3.8118591E0,2.9453125E0,4.7691994E0,0E0,3.393837E0,5.225498E0,0E0,0E0,0E0,0E0,0E0,0E0],"parents":[2147483647,0,0,1,1,2,2,3,3,5,5,6,6],"right_children":[2,4,6,8,-1,10,12,-1,-1,-1,-1,-1,-1],"split_conditions":[6.9316425E0,7.4752846E1,2.6498478E1,2.9932027E0,8.451257E-2,7.241356E0,8.6347685E0,6.092948E-2,-1.2068183E-3,2.532739E-2,6.7435026E-2,-5.9918496E-3,4.9445327E-2],"split_indices":[0,2,4,0,0,0,0,0,0,0,0,0,0],"split_type":[0,0,0,0,0,0,0,0,0,0,0,0,0],"sum_hessian":[1.416431E2,4.858678E1,9.305632E1,1.9443531E1,2.9143251E1,6.156984E1,3.1486479E1,1.622114E1,3.2223907E0,6.349115E0,5.5220726E1,4.129069E0,2.735741E1],"tree_param":{"num_deleted":"0","num_feature":"12","num_nodes":"13","size_leaf_vector":"1"}},{"base_weights":[-3.4366018E-1,2.9263353E-2,-3.7215394E-1,-1.0362318E-1,-4.047694E-1,-2.0378064E-2,1.4444875E-2,-1.7588269E-3,-2.0444132E-2],"categories":[],"categories_nodes":[],"categories_segments":[],"categories_sizes":[],"default_left":[0,0,0,0,0,0,0,0,0],"id":91,"left_children":[1,-1,3,5,7,-1,-1,-1,-1],"loss_changes":[1.9321408E0,0E0,4.902687E-1,1.1997335E0,5.5314445E-1,0E0,0E0,0E0,0E0],"parents":[2147483647,0,0,2,2,3,3,4,4],"right_children":[2,-1,4,6,8,-1,-1,-1,-1],"split_conditions":[9.0153813E-1,2.9263353E-2,2.9932027E0,1.9473704E0,2.5429722E1,-2.0378064E-2,1.4444875E-2,-1.7588269E-3,-2.0444132E-2],"split_indices":[0,0,0,0,7,0,0,0,0],"split_type":[0,0,0,0,0,0,0,0,0],"sum_hessian":[6.091912E1,1.1521277E0,5.976699E1,6.925429E0,5.2841564E1,3.8144646E0,3.1109643E0,4.004013E0,4.883755E1],"tree_param":{"num_deleted":"0","num_feature":"12","num_nodes":"9","size_leaf_vector":"1"}},{"base_weights":[-4.5009091E-1,-4.8004985E-1,4.2609308E-2,-4.955356E-1,-9.664741E-2,2.7912354E-2,-1.7437963E-2,-9.1441395E-3,-2.4144517E-2,-1.46015E-2,8.53409E-3],"categories":[],"categories_nodes":[],"categories_segments":[],"categories_sizes":[],"default_left":[0,0,0,0,0,0,0,0,0,0,0],"id":92,"left_children":[1,3,5,7,9,-1,-1,-1,-1,-1,-1],"loss_changes":[8.910141E-1,2.8269005E-1,1.1927933E0,1.655283E-1,2.5731876E-1,0E0,0E0,0E0,0E0,0E0,0E0],"parents":[2147483647,0,0,1,1,2,2,3,3,4,4],"right_children":[2,4,6,8,10,-1,-1,-1,-1,-1,-1],"split_conditions":[4.844955E4,1.7223299E1,4.9247254E4,6.945853E1,3.7751162E3,2.7912354E-2,-1.7437963E-2,-9.1441395E-3,-2.4144517E-2,-1.46015E-2,8.53409E-3],"split_indices":[11,0,11,8,11,0,0,0,0,0,0],"split_type":[0,0,0,0,0,0,0,0,0,0,0],"sum_hessian":[5.7977997E1,5.467889E1,3.2991068E0,5.2275013E1,2.403874E0,1.2280711E0,2.0710356E0,3.3696136E0,4.89054E1,1.2949998E0,1.1088742E0],"tree_param":{"num_deleted":"0","num_feature":"12","num_nodes":"11","size_leaf_vector":"1"}},{"base_weights":[-1.9199915E-1,-5.1205236E-2,-4.7235867E-1,1.3749343E-1,-3.858415E-1,-2.4418095E-2,2.2455899E-3,1.5837692E-2,-1.7336719E-2,-3.065846E-3,-2.352827E-2],"categories":[],"categories_nodes":[],"categories_segments":[],"categories_sizes":[],"default_left":[0,0,0,0,0,0,0,0,0,0,0],"id":93,"left_children":[1,3,5,7,9,-1,-1,-1,-1,-1,-1],"loss_changes":[2.4593084E0,2.7686012E0,5.1895857E-1,2.9527707E0,5.397725E-1,0E0,0E0,0E0,0E0,0E0,0E0],"parents":[2147483647,0,0,1,1,2,2,3,3,4,4],"right_children":[2,4,6,8,10,-1,-1,-1,-1,-1,-1],"split_conditions":[2.6582E1,8.617639E1,9.834441E0,1.0669697E4,3E0,-2.4418095E-2,2.2455899E-3,1.5837692E-2,-1.7336719E-2,-3.065846E-3,-2.352827E-2],"split_indices":[7,8,3,11,10,0,0,0,0,0,0],"split_type":[0,0,0,0,0,0,0,0,0,0,0],"sum_hessian":[6.1916454E1,4.200472E1,1.9911734E1,2.7235798E1,1.476892E1,1.8314753E1,1.5969816E0,1.979684E1,7.4389577E0,4.260046E0,1.0508874E1],"tree_param":{"num_deleted":"0","num_feature":"12","num_nodes":"11","size_leaf_vector":"1"}},{"base_weights":[-4.166102E-1,-4.4849998E-1,3.3108197E-2,8.486605E-2,-2.4192164E-2,-1.9346913E-2,2.6203236E-2],"categories":[],"categories_nodes":[],"categories_segments":[],"categories_sizes":[],"default_left":[0,0,0,0,0,0,0],"id":94,"left_children":[1,3,-1,5,-1,-1,-1],"loss_changes":[2.4180193E0,2.0371857E0,0E0,1.8853883E0,0E0,0E0,0E0],"parents":[2147483647,0,0,1,1,3,3],"right_children":[2,4,-1,6,-1,-1,-1],"split_conditions":[5.5497918E4,2.5386427E1,3.3108197E-2,8.642225E0,-2.4192164E-2,-1.9346913E-2,2.6203236E-2],"split_indices":[11,1,0,3,0,0,0],"split_type":[0,0,0,0,0,0,0],"sum_hessian":[5.795165E1,5.6927967E1,1.023684E0,6.109787E0,5.081818E1,3.0405967E0,3.06919E0],"tree_param":{"num_deleted":"0","num_feature":"12","num_nodes":"7","size_leaf_vector":"1"}},{"base_weights":[-3.8611832E-1,-4.2892447E-1,2.629853E-1,-4.5728338E-1,-6.375302E-2,2.6516534E-2,-1.38108665E-2,-2.295769E-2,-1.2120044E-2,2.3771042E-2,-1.8972447E-2],"categories":[],"categories_nodes":[],"categories_segments":[],"categories_sizes":[],"default_left":[0,0,0,0,0,0,0,0,0,0,0],"id":95,"left_children":[1,3,5,7,9,-1,-1,-1,-1,-1,-1],"loss_changes":[1.775363E0,5.560932E-1,8.837701E-1,1.8439007E-1,1.2092245E0,0E0,0E0,0E0,0E0,0E0,0E0],"parents":[2147483647,0,0,1,1,2,2,3,3,4,4],"right_children":[2,4,6,8,10,-1,-1,-1,-1,-1,-1],"split_conditions":[2.8232143E1,1.5521628E1,2.7063346E0,3.512567E4,1.5812381E1,2.6516534E-2,-1.38108665E-2,-2.295769E-2,-1.2120044E-2,2.3771042E-2,-1.8972447E-2],"split_indices":[7,0,0,11,0,0,0,0,0,0,0],"split_type":[0,0,0,0,0,0,0,0,0,0,0],"sum_hessian":[5.883532E1,5.5513596E1,3.3217247E0,5.127906E1,4.2345347E0,2.1515195E0,1.1702052E0,4.343577E1,7.8432946E0,1.3991412E0,2.8353934E0],"tree_param":{"num_deleted":"0","num_feature":"12","num_nodes":"11","size_leaf_vector":"1"}},{"base_weights":[-3.188786E-1,-1.5965055E-1,-4.447111E-1,-3.6231202E-1,6.595634E-1,-2.3492003E-2,1.1976441E-2,-2.3915071E-2,-6.7748963E-3,-1.7733645E-2,6.299958E-2],"categories":[],"categories_nodes":[],"categories_segments":[],"categories_sizes":[],"default_left":[0,0,0,0,0,0,0,0,0,0,0],"id":96,"left_children":[1,3,5,7,9,-1,-1,-1,-1,-1,-1],"loss_changes":[1.1999784E0,5.1468678E0,1.4292636E0,6.98061E-1,4.857775E0,0E0,0E0,0E0,0E0,0E0,0E0],"parents":[2147483647,0,0,1,1,2,2,3,3,4,4],"right_children":[2,4,6,8,10,-1,-1,-1,-1,-1,-1],"split_conditions":[4.5712285E3,3.7751162E3,1.5230876E1,3.401894E3,2.6125011E1,-2.3492003E-2,1.1976441E-2,-2.3915071E-2,-6.7748963E-3,-1.7733645E-2,6.299958E-2],"split_indices":[11,11,0,11,1,0,0,0,0,0,0],"split_type":[0,0,0,0,0,0,0,0,0,0,0],"sum_hessian":[6.2434483E1,2.8561548E1,3.3872936E1,2.3344255E1,5.217293E0,3.173165E1,2.1412857E0,1.3248392E1,1.0095863E1,2.2367656E0,2.9805272E0],"tree_param":{"num_deleted":"0","num_feature":"12","num_nodes":"11","size_leaf_vector":"1"}},{"base_weights":[-3.3226043E-1,-4.2342696E-1,-9.164643E-2,-4.9656293E-1,-2.301209E-1,-2.794484E-1,3.007558E-1,-2.4740323E-2,-1.2171349E-2,1.8064734E-2,-2.3274627E-2,-2.3130931E-2,1.2458606E-2,2.6122816E-2,-1.5577036E-2],"categories":[],"categories_nodes":[],"categories_segments":[],"categories_sizes":[],"default_left":[0,0,0,0,0,0,0,0,0,0,0,0,0,0,0],"id":97,"left_children":[1,3,5,7,9,11,13,-1,-1,-1,-1,-1,-1,-1,-1],"loss_changes":[1.3475623E0,5.298166E-1,1.4578838E0,8.017063E-2,2.5103607E0,1.6358675E0,1.2242239E0,0E0,0E0,0E0,0E0,0E0,0E0,0E0,0E0],"parents":[2147483647,0,0,1,1,2,2,3,3,4,4,5,5,6,6],"right_children":[2,4,6,8,10,12,14,-1,-1,-1,-1,-1,-1,-1,-1],"split_conditions":[1.0426517E1,1.0088815E4,8.773571E3,2.7920944E1,8.104474E1,8.939286E1,8.8265335E1,-2.4740323E-2,-1.2171349E-2,1.8064734E-2,-2.3274627E-2,-2.3130931E-2,1.2458606E-2,2.6122816E-2,-1.5577036E-2],"split_indices":[0,11,11,1,5,2,2,0,0,0,0,0,0,0,0],"split_type":[0,0,0,0,0,0,0,0,0,0,0,0,0,0,0],"sum_hessian":[6.2200714E1,4.455822E1,1.7642492E1,3.118921E1,1.3369011E1,1.2126605E1,5.5158873E0,2.6828835E1,4.3603764E0,3.881112E0,9.487899E0,8.805557E0,3.321048E0,4.0236654E0,1.492222E0],"tree_param":{"num_deleted":"0","num_feature":"12","num_nodes":"15","size_leaf_vector":"1"}},{"base_weights":[-4.1801035E-1,-4.4713616E-1,1.5618618E-1,-4.7581697E-1,-1.1073336E-1,-1.4862797E-2,2.7570577E-2,-8.827912E-3,-2.3183212E-2,1.2389978E-2,-1.8758707E-2],"categories":[],"categories_nodes":[],"categories_segments":[],"categories_sizes":[],"default_left":[0,0,0,0,0,0,0,0,0,0,0],"id":98,"left_children":[1,3,5,7,9,-1,-1,-1,-1,-1,-1],"loss_changes":[1.0641594E0,4.9575806E-1,9.1368204E-1,1.4561844E-1,7.2303224E-1,0E0,0E0,0E0,